SVM-light Version V6.02
0 # kernel type
3 # kernel parameter -d 
1 # kernel parameter -g 
1 # kernel parameter -s 
1 # kernel parameter -r 
empty# kernel parameter -u 
9947 # highest feature index 
2000 # number of training documents 
880 # number of support vectors plus 1 
-0.1422535 # threshold b, each following line is a SV (starting with alpha*y)
-0.50822278611202254 6:0.019937159 27:0.019350741 31:0.025329925 37:0.031444062 42:0.11928168 83:0.03443896 127:0.066094264 142:0.0086166598 162:0.035993244 190:0.056980081 202:0.16503957 286:0.074475288 323:0.056850906 386:0.052928429 408:0.039132856 411:0.049789339 480:0.048880257 500:0.068775021 506:0.037179198 555:0.076585822 594:0.063632675 663:0.062197074 673:0.067195281 782:0.075720288 834:0.066969693 923:0.44677126 1146:0.076086208 1191:0.5542227 1225:0.059279677 1302:0.094811738 1305:0.060443446 1379:0.070145406 1544:0.087077379 1936:0.089480147 2451:0.31556693 2796:0.1145037 2833:0.20080972 6242:0.1545693 6574:0.28386003 7639:0.29435158 #
-0.16222797830960786 2:0.038812101 6:0.028522387 29:0.03452925 31:0.036237355 41:0.17511357 42:0.11376406 84:0.055798851 105:0.10099518 134:0.068092026 142:0.0024654234 199:0.044441462 214:0.081454784 286:0.21309084 390:0.086847708 441:0.067041896 452:0.13420272 490:0.098390542 508:0.073765732 599:0.089145139 671:0.058062404 981:0.11284196 998:0.10523477 1045:0.049389366 1056:0.093360387 1058:0.10665374 1191:0.47572741 1245:0.09297391 1289:0.12875699 1391:0.12014205 1612:0.13877322 2285:0.12838162 2574:0.17665775 2634:0.17914408 2837:0.14298017 5555:0.20304713 6319:0.59167808 #
-0.016590889543769936 6:0.038740125 9:0.018522149 10:0.020422131 14:0.22108234 22:0.051641539 27:0.021150365 35:0.39411458 37:0.011456123 47:0.022920009 48:0.014812381 52:0.019740149 59:0.015034723 70:0.027856799 75:0.0098141804 77:0.12780388 80:0.047295149 83:0.018820897 84:0.028420497 85:0.04451447 111:0.015141987 124:0.36394399 138:0.040606987 141:0.044234872 142:0.0031393371 147:0.062349077 162:0.013113542 190:0.041519497 194:0.019183503 196:0.067546107 214:0.020744024 218:0.013734296 223:0.032887422 225:0.023071097 230:0.069597274 241:0.3517352 242:0.016965916 243:0.091321141 266:0.024620768 283:0.054451622 286:0.013566918 302:0.15368174 317:0.01443122 319:0.021964705 330:0.024080349 348:0.048108898 354:0.036088511 355:0.014572381 362:0.035630155 378:0.16750552 390:0.022117436 396:0.024592677 429:0.05526315 441:0.017073506 442:0.020604156 465:0.041177589 466:0.06712009 482:0.076647721 485:0.033511657 506:0.013545625 510:0.021889636 515:0.017493235 526:0.029058894 527:0.023093427 528:0.025333254 533:0.030325279 563:0.037112609 567:0.026274307 568:0.20435826 572:0.052476596 597:0.021651361 612:0.11274208 613:0.022393465 628:0.026310511 709:0.021115445 726:0.022313423 728:0.033394806 730:0.023274831 747:0.026683839 749:0.02818552 771:0.051374454 809:0.14632338 811:0.027500017 829:0.017961912 872:0.027631575 886:0.020854883 903:0.02695824 916:0.029339252 950:0.026383517 1009:0.19421759 1042:0.027587432 1105:0.030392047 1225:0.021597568 1236:0.026683839 1263:0.032887422 1288:0.031807732 1296:0.024648977 1333:0.034418903 1337:0.062349077 1364:0.035201397 1405:0.034297001 1424:0.022515368 1442:0.036412645 1488:0.033718944 1613:0.027765792 1624:0.030666044 1645:0.027676012 1720:0.031483594 1771:0.034543086 1802:0.036088511 1987:0.038106021 2090:0.03902382 2423:0.031250466 2528:0.027856799 2585:0.050227396 2667:0.045622479 2685:0.044989288 2702:0.049016144 2773:0.047992047 2825:0.032694846 2902:0.034669634 2908:0.038782213 2912:0.039535113 3044:0.039274547 3157:0.037492339 3165:0.30136436 3266:0.041358329 3383:0.050227396 3505:0.050227396 3641:0.051709849 3797:0.042928778 3842:0.037112609 4127:0.053621061 4411:0.049016144 4618:0.10724212 5235:0.047104932 5346:0.22525907 6385:0.053621061 6647:0.056314766 7702:0.053621061 8498:0.18275905 8623:0.053621061 #
0.56306141113895114 6:0.024768781 229:0.12971079 426:0.22297691 535:0.23487996 2109:0.41312066 4292:0.42308399 6768:0.51381201 7303:0.51381201 #
-0.35469787765164196 6:0.017336728 11:0.15581098 50:0.49367931 51:0.11774562 74:0.14212357 75:0.070271648 114:0.36520508 137:0.14192739 142:0.022478331 154:0.12532432 181:0.29266825 234:0.12436745 264:0.28543389 284:0.21056676 357:0.16048642 386:0.13807471 941:0.24733596 1891:0.24733596 2333:0.26707435 2365:0.23987514 #
0.046536213641308617 6:0.0083631696 15:0.028652975 26:0.036198106 28:0.092636682 31:0.015937964 60:0.031738665 63:0.045192443 67:0.04730726 75:0.016949384 81:0.025459897 88:0.031930216 107:0.039999526 142:0.0065060752 158:0.030013518 185:0.024350381 205:0.033087675 229:0.021898402 252:0.030178133 312:0.037901156 327:0.035166729 345:0.030686643 387:0.029517721 389:0.035637237 405:0.079535462 457:0.028834119 626:0.039465778 644:0.039844476 726:0.038535953 764:0.038674187 1018:0.18150607 1031:0.051383905 1149:0.040117204 1189:0.056967549 1250:0.056464978 1309:0.049362428 1446:0.043643557 2114:0.059875496 3825:0.13749339 4429:0.078791395 5300:0.08135163 6983:0.089304462 7838:0.87531561 9103:0.31563035 #
0.023692243872226307 6:0.019690813 20:0.037024938 29:0.023837732 31:0.025016947 63:0.028374439 75:0.02660452 117:0.067762986 142:0.0085101919 173:0.049059428 189:0.049116693 229:0.1718636 252:0.047368962 255:0.061090879 295:0.055729613 297:0.064119697 317:0.078241013 320:0.12460313 345:0.048167143 355:0.039503168 360:0.16164097 400:0.057835288 408:0.077298656 438:0.073187873 478:0.051472411 480:0.04827629 494:0.11119141 499:0.097777449 507:0.035095256 535:0.062242027 574:0.049145393 586:0.19299577 623:0.091108456 647:0.059288442 659:0.096191272 697:0.14073001 856:0.049260654 960:0.075639524 993:0.21638459 1017:0.077343494 1027:0.068589248 1045:0.034096614 1226:0.10388926 1277:0.077481501 1380:0.067602187 1891:0.18728048 2024:0.063922875 2135:0.091708817 2142:0.08534649 2240:0.44576016 2611:0.079533562 2733:0.08534649 2781:0.22423033 2864:0.096991815 4487:0.48783225 4682:0.12039104 5842:0.12769319 6420:0.24391612 8739:0.14535728 #
0.24520032419577931 2:0.021853605 6:0.026766436 11:0.09622357 15:0.036681693 26:0.023170503 27:0.031174976 28:0.039531324 29:0.077768385 40:0.033448368 63:0.069426723 72:0.033314768 75:0.065096073 80:0.034855783 86:0.041586466 88:0.081754461 96:0.033167735 98:0.034725074 103:0.10191981 107:0.15362282 114:0.03758971 142:0.019434595 150:0.093370512 173:0.040012956 192:0.043232415 204:0.03213679 205:0.042359017 209:0.067256823 218:0.030365884 227:0.038051587 229:0.02803445 252:0.077268414 255:0.049825825 320:0.050813261 322:0.27836633 346:0.089200951 357:0.04955548 385:0.056010634 415:0.046575505 473:0.047132656 477:0.057238393 499:0.039873727 513:0.04005966 530:0.044007238 546:0.046251085 557:0.050381921 571:0.084500022 582:0.04515237 609:0.03790947 717:0.054249819 737:0.063081488 764:0.0495109 799:0.054006025 1001:0.062748902 1013:0.066331111 1036:0.060516022 1080:0.10825484 1140:0.054373253 1232:0.060610481 1314:0.062423684 1466:0.065383144 1509:0.067647375 1805:0.077525765 2024:0.052135605 2161:0.21323645 2223:0.067956619 2275:0.084250621 2298:0.14959574 2629:0.08863502 2647:0.086834185 2830:0.16252014 3502:0.090687908 4189:0.083332293 5392:0.10610816 7546:0.22210082 8947:0.71132189 #
0.29972364827636033 6:0.0083673969 15:0.08600238 28:0.061789002 63:0.018086115 75:0.016957952 80:0.054480951 159:0.050337896 245:0.096747681 337:0.063970141 496:0.070164934 513:0.12522963 527:0.079806402 530:0.068785034 850:0.076702096 1530:0.11365256 2156:0.13485876 2340:0.23229328 6684:0.37060797 9154:0.8421064 #
-0.24615360335387892 4:0.03159973 6:0.031656884 11:0.098484591 13:0.032368906 17:0.026538759 18:0.039105788 27:0.042543348 29:0.0088439723 37:0.046087317 40:0.12172204 41:0.022425907 46:0.020390445 58:0.065340571 59:0.015120956 63:0.078953423 67:0.027549371 72:0.075772405 74:0.03992581 75:0.054287583 78:0.056123983 79:0.049541939 80:0.031710941 83:0.063096143 86:0.018917175 91:0.019457893 92:0.016075553 96:0.075437985 98:0.047388036 108:0.022542182 113:0.078214191 132:0.029538423 135:0.022186274 137:0.019935353 138:0.020419944 142:0.021469932 144:0.057909787 151:0.019231377 154:0.017603258 157:0.02467758 158:0.034956731 159:0.014649726 162:0.052755024 171:0.042110581 177:0.076247439 185:0.056721754 199:0.068296716 203:0.036921833 208:0.036487926 227:0.017309202 237:0.083705939 242:0.017063225 249:0.055580113 252:0.070296913 264:0.020046253 275:0.016375368 278:0.042045712 285:0.051937729 287:0.022603389 290:0.025322797 292:0.072038576 297:0.023788875 299:0.040318049 304:0.055316702 308:0.017992588 323:0.020831484 327:0.020479336 330:0.048436925 331:0.01903628 336:0.022263743 339:0.018940827 349:0.024140619 355:0.029311923 369:0.021775544 375:0.017262962 377:0.018742407 381:0.023408325 387:0.017189639 390:0.022244291 394:0.045371756 398:0.037881654 402:0.018560892 404:0.020449575 406:0.022832733 408:0.014339182 411:0.036487926 414:0.035985176 423:0.018449899 426:0.021921996 430:0.018952684 436:0.02150931 449:0.027834749 455:0.035560269 485:0.033703864 502:0.016808741 505:0.017516546 507:0.039061785 509:0.022603389 513:0.018222649 519:0.029116025 521:0.02401286 530:0.020018354 538:0.021337537 548:0.027570968 550:0.019839803 556:0.060219761 571:0.019219015 576:0.047676008 589:0.038770184 597:0.043551087 598:0.025735568 602:0.030912636 641:0.0192686 654:0.050894219 656:0.024038216 658:0.022521904 671:0.014871515 680:0.033586342 685:0.025735568 692:0.034024637 722:0.031277843 739:0.0248762 749:0.028347179 751:0.030702725 770:0.032787591 826:0.03174419 848:0.026914578 850:0.022322439 856:0.01827606 884:0.050281122 888:0.036456507 908:0.025901373 963:0.041321497 965:0.048647374 973:0.099826545 974:0.031277843 1019:0.034998223 1045:0.012650091 1056:0.047824763 1092:0.038112447 1095:0.034373321 1121:0.031990163 1129:0.028395772 1138:0.02401286 1146:0.027879743 1167:0.031129355 1179:0.060733795 1209:0.038543668 1225:0.021721441 1253:0.029801918 1254:0.033481117 1274:0.067824677 1324:0.029061923 1329:0.032787591 1331:0.027527999 1335:0.026175529 1355:0.067603797 1393:0.027879743 1395:0.026002867 1404:0.032978505 1414:0.040615998 1426:0.028902195 1428:0.040926825 1433:0.023478046 1438:0.03369325 1450:0.034741208 1467:0.029923405 1471:0.028203484 1514:0.035687659 1583:0.036138274 1627:0.03251107 1645:0.027834749 1650:0.080637977 1671:0.038112447 1709:0.031056331 1743:0.036138274 1841:0.18635251 1846:0.031990163 1862:0.034255061 1916:0.029741993 1961:0.71326554 1994:0.034868483 2024:0.02371585 2070:0.044665951 2100:0.14212531 2180:0.039247643 2202:0.034138855 2257:0.035130538 2298:0.034024637 2441:0.039247643 2535:0.081853651 2597:0.045884147 2605:0.10620988 2621:0.041252822 2731:0.035543963 2789:0.038543668 2844:0.045884147 2865:0.049297277 2953:0.042743776 3029:0.038543668 3070:0.038112447 3101:0.0371424 3149:0.041595541 3206:0.041595541 3395:0.041252822 3452:0.045247324 3480:0.041956797 4393:0.045247324 4478:0.30309287 4548:0.048267305 6383:0.050515477 6817:0.053928606 7090:0.05663776 #
-1 6:0.023371298 18:0.041701969 29:0.056586664 42:0.093218483 57:0.058161557 63:0.016839005 68:0.04782524 73:0.16930892 75:0.015788635 83:0.080742009 92:0.051428363 110:0.075185031 117:0.4021441 131:0.20687652 140:0.055050902 142:0.022221899 173:0.058229309 179:0.042467169 202:0.096733667 218:0.044190299 237:0.066947296 239:0.06604819 254:0.075185031 301:0.070611119 351:0.055286124 405:0.074088611 408:0.045873418 437:0.070072964 455:0.056881595 465:0.1324895 500:0.080621392 508:0.060443778 534:0.059379369 592:0.076740302 684:0.14582081 697:0.083517194 719:0.08385206 733:0.26379013 742:0.07995484 780:0.079037294 782:0.088762969 881:0.088762969 884:0.080428824 890:0.16362952 930:0.13641627 1086:0.098223113 1128:0.35147467 1264:0.12898713 1424:0.07244353 1469:0.088204101 2114:0.11155005 2161:0.10343826 2248:0.10234184 2682:0.11464055 2913:0.11464055 4595:0.146791 5178:0.13422675 5752:0.36238715 6146:0.1663772 7554:0.17252655 #
-1 6:0.030179083 15:0.015907118 20:0.013095275 25:0.0174229 26:0.030143861 27:0.027038231 29:0.0084311189 30:0.13953978 31:0.0088481931 37:0.03295191 38:0.018913643 40:0.029009957 48:0.014201904 54:0.017382134 63:0.050178487 67:0.026263317 68:0.02850285 72:0.014447043 75:0.037638795 80:0.030230617 83:0.048120562 84:0.013624587 85:0.028453233 88:0.017726526 92:0.015325118 97:0.014485608 102:0.022120243 139:0.037983283 142:0.017457724 144:0.027603226 145:0.019480813 159:0.01396585 162:0.012573081 166:0.017321469 172:0.018205171 174:0.017016925 176:0.012033187 178:0.018735282 185:0.013518469 186:0.039520487 190:0.019904155 199:0.03255425 209:0.014583055 218:0.0263365 274:0.05017684 286:0.01300777 308:0.017152661 317:0.027672904 342:0.021686483 345:0.017036138 365:0.024596941 386:0.018488841 387:0.016387194 390:0.021205887 396:0.023579113 399:0.021889357 404:0.038989905 414:0.017152661 433:0.018773085 459:0.021205887 485:0.032130506 499:0.017291352 501:0.024140684 507:0.049651079 508:0.036023237 518:0.06073558 534:0.017694436 548:0.026283905 550:0.037827287 560:0.027654096 561:0.020571915 582:0.019580452 629:0.028353583 639:0.026708709 643:0.018887855 647:0.29357451 654:0.024259193 667:0.022359816 671:0.014177286 673:0.023472507 676:0.023213539 678:0.050245147 695:0.045832139 712:0.042635933 714:0.024024339 716:0.022228025 720:0.023112832 732:0.025402606 747:0.025584091 763:0.026886893 778:0.022184692 780:0.023552295 784:0.36473775 850:0.021280387 876:0.044808719 904:0.028296964 908:0.02469225 909:0.020439208 912:0.022077637 947:0.48009431 963:0.059088804 966:0.023188213 981:0.027552988 997:0.022077637 1009:0.18621311 1018:0.075574309 1042:0.026450442 1046:0.13040838 1056:0.022796109 1080:0.023472507 1083:0.024887256 1094:0.023910081 1098:0.02604199 1117:0.02770526 1118:0.41845593 1134:0.028240843 1138:0.022891896 1149:0.022271652 1194:0.035583049 1196:0.058278937 1198:0.027654096 1229:0.026202241 1305:0.042227942 1404:0.03143901 1407:0.028296964 1410:0.032018472 1493:0.030993396 1500:0.026492767 1595:0.029075451 1608:0.025156911 1609:0.032436308 1697:0.031722154 1707:0.026535373 1849:0.028704297 1872:0.034601156 1920:0.034911934 1921:0.035073202 1923:0.034451276 1995:0.030036146 2003:0.036333289 2034:0.031257007 2099:0.033750605 2107:0.029746564 2257:0.03349058 2282:0.13447706 2326:0.034911934 2385:0.073071033 2403:0.034911934 2510:0.036960322 2547:0.036744379 2624:0.029469578 2643:0.033750605 2648:0.041159507 2651:0.040748417 2658:0.038165733 2723:0.030262312 2724:0.042071015 2825:0.031347357 2846:0.15374729 2880:0.034911934 3042:0.036744379 3046:0.035583049 3083:0.043742195 3360:0.03254519 3466:0.036744379 3482:0.035408527 3587:0.048157323 3778:0.038719967 3848:0.04699599 3969:0.035238657 4006:0.039653786 4174:0.040362258 4237:0.041598972 4293:0.037183844 4354:0.041598972 4445:0.040362258 4820:0.042580862 5035:0.040748417 5084:0.04699599 5143:0.045163546 5248:0.041598972 5299:0.048157323 5601:0.041159507 6015:0.090327092 6088:0.048157323 6290:0.051411122 6302:0.092028201 6321:0.049578678 6324:0.09399198 6410:0.042071015 6978:0.045163546 7055:0.043135099 7077:0.043135099 7390:0.04699599 7392:0.04699599 7503:0.051411122 7544:0.048157323 7550:0.09399198 7999:0.053993806 8410:0.049578678 8554:0.10798761 8783:0.051411122 8784:0.051411122 8832:0.051411122 8987:0.051411122 #
-0.77773110506736054 6:0.014209813 29:0.051607274 37:0.067233391 38:0.23154259 63:0.24571589 75:0.1151944 82:0.42633539 85:0.17416355 87:0.13237901 142:0.066326611 208:0.53229541 286:0.079621166 291:0.11437313 339:0.1105255 346:0.35516369 387:0.10030678 399:0.26797155 515:0.10266383 994:0.16268679 1213:0.18080166 2171:0.19661039 #
-0.16896672717693992 6:0.02993907 13:0.066326983 27:0.087175392 34:0.079533137 57:0.074506044 58:0.06694454 72:0.062105961 96:0.061831862 137:0.081698887 142:0.010351516 144:0.059331346 158:0.071629681 161:0.09739124 199:0.13994651 203:0.15131274 231:0.10698709 233:0.23603773 264:0.08215338 278:0.086155683 290:0.10377767 315:0.42408553 351:0.070822567 388:0.311333 394:0.092971072 408:0.058764707 442:0.084924079 509:0.18526602 594:0.095555395 599:0.093572907 613:0.092299074 676:0.099791996 808:0.10415887 843:0.35034433 886:0.085957497 952:0.092971072 975:0.1236556 990:0.13436982 1111:0.12391764 1424:0.18560304 2032:0.18804201 3273:0.3354519 3318:0.16084436 3571:0.15888762 #
0.46228047138505424 85:0.21392022 111:0.21830052 153:0.30275765 574:0.26136854 1228:0.42982528 1528:0.52495748 1838:0.53504878 #
0.67277817241783699 6:0.0059946743 9:0.13757426 27:0.034910109 34:0.047774557 62:0.13726491 64:0.1039867 83:0.01553258 99:0.17043218 140:0.084722444 142:0.010881544 151:0.047342494 186:0.034017619 205:0.047434129 242:0.042005088 337:0.04583028 355:0.036079049 361:0.21484016 377:0.046138782 408:0.035299219 423:0.045418706 471:0.06249024 555:0.069083124 610:0.15436704 621:0.083483092 671:0.036609687 697:0.064265795 781:0.064962126 896:0.15184914 965:0.059878398 1129:0.069902778 1171:0.19850908 1262:0.27704599 1319:0.063273638 1509:0.075752333 2119:0.09488418 2341:0.16696618 2754:0.084040716 2886:0.44554713 2938:0.096018992 3416:0.09488418 7126:0.13275777 9074:0.60331231 #
-0.63886944798536749 6:0.038150091 17:0.056695674 29:0.01259579 37:0.065638632 41:0.079848744 42:0.16599819 51:0.070664577 53:0.24038787 57:0.025892699 58:0.023264889 63:0.0074964864 65:0.049624208 75:0.0070288759 81:0.021116337 83:0.0089862999 85:0.04250811 111:0.021689259 138:0.029082559 142:0.0017987044 144:0.020619115 159:0.020864479 160:0.22004548 164:0.1215349 166:0.23289889 184:0.081736162 186:0.098403648 190:0.059472188 200:0.033504758 215:0.02209468 229:0.018162448 252:0.050059248 271:0.038276881 275:0.02332218 281:0.040034022 290:0.072130628 293:0.032825902 335:0.04592485 341:0.028977871 342:0.032398827 347:0.0284908 377:0.080080107 378:0.095973417 384:0.037583526 396:0.035226353 402:0.026434854 409:0.017712168 444:0.22780567 454:0.069209345 483:0.033673786 485:0.048001826 502:0.023939399 506:0.019402644 507:0.018544232 508:0.026908712 517:0.038672265 518:0.030245593 534:0.026434854 535:0.098665528 549:0.037033889 550:0.056512613 554:0.044026494 555:0.039967708 557:0.03264052 591:0.036468409 597:0.15506618 641:0.027442787 654:0.036242362 662:0.036153428 671:0.021180358 676:0.034680195 687:0.039024752 694:0.051036347 738:0.042025305 741:0.042025305 767:0.03317545 800:0.030584624 814:0.077001594 824:0.07757663 909:0.030535445 910:0.055551328 953:0.03789727 969:0.038788315 993:0.038112331 996:0.038614765 1000:0.042107698 1001:0.081305228 1007:0.16013609 1009:0.34001696 1014:0.085061409 1102:0.041545402 1146:0.039706979 1149:0.033273049 1194:0.37211859 1213:0.044128269 1227:0.07579454 1327:0.045096844 1512:0.11848267 1531:0.047391761 1535:0.051468968 1548:0.038166866 1598:0.036287144 1645:0.039642897 1707:0.039642897 1722:0.049479235 1734:0.14396013 1747:0.052157179 2057:0.054894786 2147:0.058288932 2170:0.053703722 2204:0.051692888 2217:0.06149083 2502:0.059241336 2555:0.046831831 2624:0.044026494 2807:0.047107678 3056:0.068743415 3316:0.053427875 3426:0.057018239 3542:0.18089931 3989:0.058288932 4065:0.12722856 4069:0.059755843 4188:0.057846244 4293:0.055551328 4317:0.060299769 4390:0.068743415 6486:0.07406877 6846:0.071945317 7148:0.071945317 7158:0.067472719 7643:0.076806374 7646:0.076806374 7647:0.076806374 8402:0.24199444 #
0.47254239676184689 6:0.037827391 9:0.072343044 12:0.031875331 15:0.016200008 16:0.052035537 26:0.020465923 27:0.013768037 29:0.034345429 41:0.021772666 42:0.11315842 47:0.022380004 57:0.070602633 58:0.031718638 60:0.035889231 62:0.054135278 63:0.03066144 68:0.029027659 72:0.029426098 75:0.047914773 83:0.012251645 96:0.08788868 98:0.030671785 119:0.19789113 127:0.047026016 142:0.013487642 144:0.028111471 149:0.05264619 159:0.028445993 175:0.045771051 183:0.12479309 186:0.080496311 199:0.022102436 204:0.056771241 209:0.029703131 237:0.040633842 242:0.033132385 247:0.13916278 284:0.028715018 286:0.026494553 291:0.038058534 308:0.069873936 325:0.042459495 327:0.11929679 332:0.060733508 346:0.039394479 381:0.045452934 382:0.041531164 390:0.043192681 405:0.089936569 408:0.027842995 411:0.035425074 423:0.035824951 436:0.041765537 442:0.040237427 473:0.041631091 477:0.050557233 498:0.048585836 555:0.054490753 557:0.044501085 574:0.035404366 586:0.069517121 594:0.045274597 610:0.12176022 685:0.049971841 717:0.047917504 731:0.054490753 743:0.060024373 851:0.05370421 853:0.050035596 882:0.035508242 884:0.048816491 909:0.041631091 1005:0.049845267 1027:0.049411729 1067:0.050293792 1203:0.093722671 1511:0.057074234 1539:0.077736922 1581:0.067458473 1634:0.082210861 2107:0.060588546 2119:0.14968374 2143:0.074416459 2404:0.074004553 2475:0.076208808 2503:0.093722671 2886:0.52715188 2945:0.36796096 2999:0.078865796 3194:0.093722671 3416:0.074841872 3676:0.41105428 4382:0.095722608 4686:0.090462133 5103:0.08909519 6381:0.090462133 6715:0.10471546 7126:0.10471546 #
0.6270628749198609 6:0.02973881 15:0.10188784 153:0.25793231 203:0.22545092 373:0.21229751 543:0.32916847 2798:0.50797874 2799:0.50797874 2833:0.44929987 #
1 6:0.016720455 11:0.1878404 26:0.072370738 58:0.056081057 59:0.051912565 69:0.08481811 72:0.10405533 75:0.033886842 79:0.11339007 83:0.021661878 98:0.10846028 132:0.050704975 142:0.0043358575 169:0.060939606 172:0.065561697 178:0.067470759 185:0.048683625 299:0.069209032 317:0.049828764 337:0.063915327 345:0.12270339 404:0.21061961 415:0.072736956 455:0.061041936 466:0.077251755 518:0.072908357 532:0.096664779 663:0.078243099 762:0.1113076 772:0.077460609 804:0.078755312 933:0.097154602 1225:0.074573047 1335:0.089864619 1431:0.097655103 1503:0.11322029 1849:0.10337185 2365:0.34702232 3335:0.12252123 4044:0.33849028 5935:0.16570909 7390:0.16924514 9225:0.63103861 #
-0.083345490546697029 2:0.040585894 4:0.043004103 5:0.055817071 6:0.019883947 15:0.034062099 23:0.071514852 26:0.043031603 27:0.028948642 29:0.036107309 30:0.059759632 41:0.045779157 63:0.042979114 75:0.020149097 83:0.025760282 142:0.020624788 169:0.14493863 218:0.056394659 228:0.15038194 229:0.052064788 234:0.071320139 283:0.22358486 286:0.055707384 339:0.07732977 366:0.1253501 406:0.093219258 409:0.050774008 518:0.086702541 534:0.075778604 636:0.10167997 829:0.073753752 1045:0.051646564 1491:0.11419585 1545:0.12709191 3426:0.32689893 5211:0.50946671 7222:0.63698041 #
-0.36304219125391385 6:0.024133489 9:0.026373781 14:0.20986685 16:0.037940729 17:0.018786585 26:0.014922341 27:0.020077409 33:0.019078124 34:0.19233184 37:0.016312432 58:0.023127045 59:0.02140802 67:0.01950199 72:0.021455484 80:0.022447934 83:0.0089330561 98:0.067091264 100:0.021304427 111:0.021560753 114:0.024208646 118:0.022575626 119:0.14428858 132:0.020910025 142:0.0053641414 151:0.027227489 153:0.20931594 159:0.020740859 175:0.20023859 183:0.030330176 226:0.10693056 235:0.05233337 240:0.031036828 247:0.050733961 299:0.02854084 322:0.029879063 323:0.11797159 325:0.030958541 327:0.028994335 336:0.094562002 364:0.031943675 372:0.13613176 377:0.10614086 390:0.031493127 402:0.026278229 404:0.11580879 405:0.032787774 406:0.032326236 478:0.081110187 495:0.037995253 496:0.028910248 523:0.040411752 541:0.035551298 561:0.061103217 580:0.062390748 631:0.023138409 644:0.032851052 655:0.052211031 663:0.032266364 695:0.034032941 713:0.034474719 720:0.034325156 726:0.031772196 739:0.07043869 785:0.048497792 810:0.050733961 842:0.049928393 880:0.16221602 883:0.040202301 912:0.032787774 917:0.041940831 925:0.10189309 963:0.1170047 997:0.032787774 1011:0.041377105 1027:0.036027629 1086:0.043468453 1139:0.17251053 1140:0.035017639 1198:0.041069448 1260:0.046028681 1322:0.077468447 1418:0.087531283 1539:0.056680407 1645:0.039408013 1771:0.049186073 1816:0.11365956 1904:0.048171565 1952:0.048333272 2067:0.04299299 2206:0.044497695 2387:0.046828568 2520:0.064060472 2896:0.11588715 2901:0.12103198 2913:0.10146792 2979:0.053385533 2999:0.05750351 3086:0.061779153 3364:0.12992416 3475:0.055923227 3668:0.13667223 3945:0.063237377 3949:0.58903933 4296:0.071519047 4372:0.0763513 5306:0.061779153 6855:0.26023152 #
-1 6:0.022237103 15:0.038093161 26:0.24062078 27:0.016187279 28:0.041052442 29:0.12114123 41:0.025598435 42:0.033260494 63:0.084114552 75:0.056334082 83:0.043213304 97:0.034689035 114:0.039036121 137:0.045511097 142:0.044689637 144:0.033051059 159:0.03344436 168:0.041288573 171:0.048067842 174:0.040750843 176:0.028816164 192:0.044895947 198:0.048405576 199:0.0519723 218:0.031534329 228:0.16817881 229:0.029113185 234:0.039880242 238:0.10963956 256:0.037832558 265:0.10503605 286:0.031150024 298:0.11022288 346:0.04631665 386:0.044275675 402:0.042373296 405:0.052869853 433:0.04495636 436:0.049104337 442:0.047307719 448:0.050345156 465:0.047272451 472:0.050649803 507:0.02972516 534:0.042373296 597:0.049712133 608:0.060661804 655:0.042094797 658:0.051416025 667:0.053545594 696:0.06135527 772:0.10301751 774:0.062363382 840:0.21075112 850:0.05096066 869:0.074428171 1025:0.067763425 1201:0.070899561 1207:0.063341513 1260:0.074220635 1321:0.064495265 1359:0.061714195 1433:0.053598836 1489:0.065163411 1613:0.063751034 1731:0.069029428 1831:0.15057552 2024:0.054141726 2066:0.074428171 2264:0.30204177 2306:0.078202046 2555:0.07506828 2686:0.084793657 2907:0.082860231 2929:0.10635763 2965:0.084793657 3191:0.095784605 3222:0.099618062 3676:0.57993889 3944:0.096656479 4530:0.091396406 4683:0.10196942 4917:0.10074848 4976:0.10196942 5051:0.10635763 6231:0.098565675 7989:0.11254244 8226:0.24623092 #
0.0086886775186009058 6:0.010509685 15:0.012002377 27:0.010200561 37:0.016575439 40:0.021888843 64:0.09115319 81:0.021329671 85:0.021468779 108:0.032429449 111:0.06572514 132:0.021247162 142:0.00090843812 144:0.020827426 176:0.018158767 218:0.039743289 220:0.056206957 242:0.024547357 256:0.023840532 274:0.037859865 299:0.029001011 304:0.053052839 309:0.025781386 377:0.026963048 389:0.059711989 394:0.065272346 398:0.08174549 416:0.034083139 426:0.031537242 439:0.037757605 485:0.024243388 493:0.031274594 530:0.028798642 539:0.032547031 591:0.03683684 827:0.029923292 947:0.34093639 953:0.038280137 989:0.12710211 1003:0.037023492 1025:0.04270174 1058:0.039298855 1118:0.13531585 1331:0.079204209 1627:0.046770811 1639:0.047304962 1651:0.048017304 2040:0.047726002 2124:0.048948243 2206:0.090430282 2241:0.048948243 2243:0.05268411 2547:0.055449374 2723:0.045667563 3022:0.058877811 3580:0.072672158 4737:0.6425696 5531:0.065093331 5802:0.56735718 7094:0.07758233 #
-0.36647975863027904 18:0.23944505 27:0.13024662 77:0.33729962 142:0.023198921 146:0.40166989 153:0.38796547 324:0.47394645 1489:0.52432007 #
0.39281935145691588 6:0.011386723 28:0.042042602 31:0.021700047 58:0.038191516 63:0.012306191 68:0.034951381 75:0.011538564 102:0.054249529 142:0.00885823 144:0.033848226 179:0.031035626 199:0.079838753 406:0.053382859 409:0.058152396 457:0.078517154 486:0.08485876 513:0.042604499 574:0.042629395 631:0.03821028 647:0.051427618 671:0.034769557 761:0.057893436 784:0.22362831 804:0.053632811 947:0.13852039 1018:0.3089079 1046:0.51171905 1064:0.10550222 1118:0.65973616 1225:0.050784666 1305:0.051781662 2771:0.082135096 2779:0.08562094 2846:0.18853135 4006:0.097250253 4438:0.10578811 #
0.047124644948104664 6:0.012748854 15:0.021839364 28:0.094143853 31:0.024295904 64:0.055287041 83:0.016516544 94:0.038266886 159:0.038348276 185:0.074239664 245:0.073704049 355:0.038364597 404:0.10706083 499:0.094959281 535:0.060448077 561:0.056487605 847:0.20393443 965:0.063671596 1007:0.14716262 1124:0.07086771 1259:0.10089494 1294:0.072399087 1309:0.075248308 1329:0.08582738 1544:0.0835227 1548:0.070149533 1652:0.076359175 1740:0.091274478 1955:0.095863298 2190:0.098198801 2478:0.31895888 2723:0.083096087 2771:0.09196046 3320:0.095009945 3509:0.1169211 6248:0.1240128 9072:0.80191392 #
0.4859282692047962 6:0.026357772 27:0.025582504 29:0.063817523 63:0.018990759 64:0.076202571 73:0.28641579 75:0.035612334 81:0.10698753 86:0.068252549 88:0.067088544 117:0.090706326 131:0.233312 142:0.020504862 158:0.063061371 173:0.065670073 180:0.067705125 185:0.05116256 204:0.052743558 255:0.081775159 312:0.079634085 322:0.076143414 329:0.1179594 360:0.10818486 405:0.16711187 432:0.082533307 465:0.074709758 507:0.046977881 565:0.28035393 592:0.43273237 688:0.097533606 731:0.10124972 784:0.086275101 873:0.10158688 960:0.10124972 1033:0.10524646 1036:0.099320129 1046:0.098709792 1064:0.08140485 1069:0.13988157 1132:0.13604699 1133:0.40980411 1134:0.10688146 1229:0.099166088 1264:0.14546959 1418:0.11153179 1752:0.11829656 2335:0.12983151 2397:0.1611533 2491:0.13534819 2840:0.17092784 #
1 2:0.036723621 6:0.013493799 17:0.024509743 20:0.025372595 26:0.21415123 27:0.013096903 29:0.016335616 30:0.13518183 32:0.033717979 40:0.056207899 54:0.03367855 63:0.20416775 64:0.039011728 75:0.13673738 83:0.058272146 84:0.079194471 94:0.02700194 100:0.027794622 103:0.042817473 110:0.043409303 134:0.064427994 142:0.062984496 150:0.078451671 154:0.032514811 176:0.023314759 185:0.026192551 205:0.035590846 218:0.02551399 227:0.03197166 231:0.048220009 234:0.032266553 264:0.037027244 286:0.050406106 308:0.033233937 309:0.033101737 314:0.035893291 317:0.026808655 387:0.031750817 402:0.034283645 408:0.13242882 430:0.03500732 457:0.031015499 473:0.039601747 508:0.069796398 510:0.04066404 518:0.039225835 565:0.047842178 592:0.044307262 676:0.044977121 683:0.054397136 686:0.053192127 716:0.043067645 757:0.085470393 799:0.045376882 827:0.038419694 867:0.039538294 871:0.051664323 918:0.052007165 965:0.044928048 966:0.044928048 997:0.085552529 1045:0.023365863 1129:0.052449558 1363:0.10185214 1366:0.048742481 1446:0.046945307 1931:0.058634385 1980:0.055850755 2106:0.061094455 2422:0.14322408 2490:0.36973783 2682:0.066189587 2744:0.061842654 3880:0.40757102 4720:0.61464584 6598:0.083575904 #
0.20879194581693011 6:0.031619839 15:0.10833243 20:0.059455264 29:0.03827903 41:0.048532605 60:0.15999858 63:0.022782074 75:0.021360992 83:0.027309667 92:0.069579214 134:0.07548663 142:0.008199485 174:0.077260368 176:0.054633163 205:0.083399557 218:0.059786588 220:0.16910639 229:0.055196289 337:0.080579638 408:0.062063739 507:0.056356549 530:0.086644687 987:0.086048387 1140:0.10705407 1418:0.133798 1422:0.14316182 1433:0.10161914 1734:0.14583322 3691:0.32310882 4402:0.20891356 9089:0.79556602 #
-0.57502792128597491 6:0.039511804 11:0.17755291 18:0.10575279 27:0.057524446 97:0.24654764 118:0.38809302 142:0.015368978 169:0.14400527 194:0.15652502 280:0.41391858 286:0.1106973 341:0.16506706 343:0.20932218 406:0.18523793 530:0.32481074 720:0.19669227 1046:0.4439148 1607:0.25561029 #
-0.97602919313051195 6:0.0068459064 18:0.036645945 27:0.019933637 46:0.11464704 59:0.042509437 100:0.042303737 111:0.085625432 142:0.0017752432 179:0.037318371 199:0.064000688 239:0.058040388 292:0.067507185 336:0.062589906 363:0.063952476 406:0.064189501 475:0.055473134 507:0.036604706 571:0.054030281 574:0.051259141 919:0.42858103 1018:0.22286528 1393:0.078378126 2240:0.092986472 2677:0.49069408 2750:0.11254905 3601:0.27138707 4700:0.58482128 5981:0.14620532 #
-0.39935987114283816 6:0.015509642 12:0.052276924 20:0.13123357 30:0.093226008 48:0.047441196 75:0.031432923 77:0.058475874 81:0.047215812 83:0.060279693 132:0.047033168 142:0.014076565 166:0.057862047 186:0.044005815 204:0.093107298 218:0.043988299 227:0.055121873 234:0.055630293 266:0.078855559 303:0.13857508 309:0.057070225 322:0.067207336 331:0.12124365 346:0.064608656 348:0.15408351 391:0.080252856 438:0.086470604 505:0.055782169 574:0.11612939 579:0.091058023 586:0.057005551 599:0.072711788 607:0.076070733 631:0.052045502 643:0.063094534 667:0.074692547 676:0.077544399 724:0.18148087 768:0.096914284 780:0.157352 804:0.073052242 808:0.080937721 846:0.11230453 951:0.10109069 1058:0.086992785 1081:0.086214237 1098:0.086992785 1118:0.19969204 1138:0.07646995 1176:0.087528102 1225:0.069172837 1490:0.12578879 1752:0.2088269 1781:0.098442577 2076:0.096704647 2151:0.11828152 2243:0.11662267 2444:0.10984667 2510:0.24693054 2591:0.11274327 3075:0.13896058 3467:0.11230453 3512:0.16086864 4107:0.13361317 4404:0.15698923 5393:0.26965874 5458:0.15698923 6814:0.150868 8219:0.17173789 8587:0.18036531 9612:0.36073062 #
-1 6:0.021562593 15:0.036937695 42:0.032251615 75:0.032775193 96:0.066798426 108:0.24950665 140:0.11427866 142:0.011182989 154:0.038968097 159:0.032429904 165:0.2616978 172:0.084547944 205:0.042654645 306:0.042300843 316:0.22031742 327:0.045334838 350:0.15736641 388:0.16817021 398:0.041929055 405:0.051266171 406:0.050544515 416:0.10489194 473:0.047461599 513:0.040339235 524:0.060938366 530:0.044314366 555:0.062122274 592:0.053101026 671:0.032920875 674:0.071381532 723:0.055325352 781:0.058416512 806:0.057867184 974:0.069239341 975:0.066794045 1018:0.05849668 1045:0.028003339 1232:0.061033487 1782:0.066377372 1994:0.077187896 2152:0.086881988 3285:0.086881988 3366:0.086344078 3525:0.093724631 3988:0.57345551 4214:0.20314626 5634:0.501513 #
0.041439513513403581 6:0.040605489 15:0.034779519 16:0.0558571 26:0.043937936 27:0.029558361 29:0.07373561 40:0.031713862 42:0.030367233 53:0.039089661 63:0.032913256 64:0.044022728 72:0.031587191 75:0.02057348 81:0.061807398 96:0.062895566 142:0.013161993 144:0.060352031 150:0.044264335 158:0.03643097 159:0.030535106 160:0.046005134 171:0.04388652 173:0.037938032 183:0.044652686 185:0.059113894 228:0.15354928 229:0.053161379 255:0.094484091 284:0.030823888 286:0.056880698 312:0.046005134 314:0.040503733 320:0.096356556 341:0.042409029 345:0.037248023 346:0.042287663 351:0.036020465 387:0.071658321 402:0.077374659 405:0.048270814 408:0.029887822 410:0.064581595 430:0.039503962 439:0.054705471 448:0.045965735 457:0.034999393 478:0.079608023 485:0.035125267 502:0.035035241 507:0.027139431 550:0.041353021 586:0.037311278 600:0.088248536 608:0.05538496 610:0.065351225 701:0.072948426 719:0.054631978 731:0.058492627 733:0.1145778 737:0.059810318 758:0.053171981 767:0.048552174 796:0.04461693 797:0.075004518 827:0.043354649 856:0.11428092 883:0.05918663 890:0.053304616 930:0.044439517 956:0.067210883 965:0.10139798 1037:0.056766585 1058:0.056938525 1124:0.05642895 1154:0.068941951 1190:0.054928303 1236:0.055937368 1266:0.069148272 1314:0.05918663 1319:0.053573743 1332:0.062370747 1335:0.054558873 1380:0.052277293 1472:0.1032251 1482:0.060132962 1547:0.068145916 1634:0.088248536 1658:0.29634374 1776:0.05878583 2248:0.13335718 2307:0.071157202 2736:0.066334702 2804:0.066334702 3014:0.090952501 3297:0.083446026 3676:0.61773974 5051:0.097105794 5114:0.094311103 6718:0.33721772 7703:0.19749226 #
0.93047719256538652 6:0.036053032 11:0.048603099 15:0.037056282 18:0.038598172 25:0.027058238 27:0.041991111 28:0.026623342 29:0.026187515 37:0.051175211 42:0.021570103 53:0.11106288 56:0.066569127 59:0.022387015 63:0.023378568 64:0.062539436 68:0.088531405 75:0.021920277 79:0.097797707 80:0.023474485 83:0.018683136 92:0.047600649 96:0.022337627 97:0.022496544 142:0.013088706 144:0.042868562 160:0.26142269 174:0.052855492 176:0.018687867 178:0.029096402 179:0.039306421 185:0.020994551 186:0.020458797 189:0.026979161 199:0.016852545 203:0.027331924 204:0.021643313 208:0.081032149 209:0.022647882 215:0.022968182 216:0.031367421 226:0.027955133 239:0.030566176 262:0.033741914 283:0.027026532 286:0.080805689 293:0.034123659 306:0.028291097 323:0.030841619 327:0.030320255 330:0.10756841 331:0.028183766 337:0.1378157 341:0.030123495 346:0.12014915 347:0.05923434 359:0.040141378 364:0.033404469 373:0.025737306 377:0.027748678 387:0.076349273 396:0.036619004 399:0.067989536 409:0.018412409 455:0.026324006 465:0.030657141 466:0.033314403 478:0.028273128 505:0.077801265 507:0.01927737 521:0.035551738 535:0.03418874 586:0.026502518 625:0.040081967 626:0.068053663 655:0.02729933 667:0.034725402 671:0.022017712 686:0.04263597 695:0.10676783 696:0.039790135 702:0.085895129 712:0.033107381 719:0.038805559 733:0.040692795 754:0.043945953 792:0.039562717 793:0.043269295 796:0.031691786 804:0.033962805 827:0.030795176 890:0.037862722 986:0.064478651 1009:0.12853068 1033:0.043187875 1101:0.046419531 1143:0.042790543 1162:0.041826483 1175:0.038199719 1189:0.049116608 1194:0.055261441 1195:0.048542984 1250:0.048683301 1272:0.13667637 1308:0.042113237 1338:0.091117583 1373:0.041826483 1377:0.03438659 1411:0.045662377 1469:0.3673766 1489:0.084519587 1499:0.054990403 1547:0.048404627 1561:0.048000801 1639:0.097366601 1651:0.098832794 1665:0.23314656 1688:0.048542984 1802:0.10747308 1806:0.049569771 1808:0.10875092 1809:0.056426585 1816:0.039619084 1863:0.043434169 1890:0.11938687 1897:0.096267171 1949:0.13458769 1954:0.051068947 1969:0.04926537 2056:0.046998195 2058:0.053974919 2154:0.04926537 2229:0.15375139 2575:0.050208203 2593:0.11285317 2779:0.054219186 2858:0.32531512 3101:0.054990403 3349:0.054990403 3401:0.10893928 3624:0.062683687 3739:0.055540118 3779:0.062683687 3904:0.061583411 4781:0.065337434 5056:0.062683687 5217:0.063921839 5406:0.13067487 5482:0.062683687 5494:0.064604335 5589:0.074789636 5740:0.064604335 5774:0.072986051 5893:0.07014022 6539:0.072986051 6978:0.07014022 7075:0.079842873 7163:0.079842873 7835:0.25156155 8275:0.079842873 #
0.79563672076057168 4:0.025984826 6:0.018022032 11:0.026995007 20:0.033887099 26:0.052002884 28:0.0443612 63:0.090894043 75:0.060874514 83:0.031130817 102:0.057241328 142:0.026482461 158:0.043117989 159:0.03613992 218:0.068151884 255:0.11182695 276:0.14000231 304:0.1364627 312:0.054449517 317:0.035805073 339:0.093451574 345:0.044085015 346:0.10009939 351:0.042632136 363:0.056118872 373:0.042884842 386:0.047844224 398:0.046725787 399:0.056643855 405:0.057131074 408:0.035373826 472:0.054732092 475:0.048678175 496:0.15112402 587:0.076085031 631:0.080635063 709:0.10477839 726:0.05536148 867:0.052806508 1043:0.067186274 1064:0.055660274 1808:0.1208043 2306:0.084504999 2376:0.50032246 4396:0.23814461 5953:0.11492987 7374:0.23374259 8201:0.64148241 #
0.58858820555702196 6:0.011643667 26:0.025198501 27:0.016951783 31:0.022189712 67:0.03293189 87:0.16270909 88:0.088910013 97:0.036327358 134:0.041695714 142:0.0030193725 146:0.10455582 153:0.050494254 204:0.034949563 215:0.037088957 218:0.033023655 226:0.045141876 232:0.10335008 277:0.052722894 308:0.043015856 312:0.052768085 322:0.10091011 372:0.057469472 389:0.099232256 457:0.040144455 597:0.052059975 663:0.10897271 784:0.22867453 880:0.13696243 883:0.067887314 909:0.051257942 1005:0.12274315 1045:0.030243261 1192:0.072443947 1201:0.074248061 1322:0.06540826 1904:0.56941187 2025:0.182235 2246:0.073735483 2421:0.37300214 3369:0.095060855 3727:0.10322081 4124:0.10969773 4379:0.46158108 4416:0.11138076 5241:0.1207701 #
0.41573090516366162 6:0.033156447 26:0.14351025 27:0.096543625 142:0.0085979495 153:0.28757438 541:0.34190181 979:0.50821614 1550:0.52788711 2643:0.48204419 #
-0.17809270813738082 6:0.021540467 11:0.1935914 17:0.058688216 27:0.047040507 30:0.032369085 47:0.025488183 51:0.036574025 53:0.20736349 58:0.072247565 83:0.013953178 88:0.041120276 101:0.052338909 118:0.03526248 132:0.065321721 135:0.1471892 142:0.0055857571 144:0.064031295 158:0.038651925 160:0.097619519 203:0.40824753 219:0.045026794 237:0.046277147 242:0.037733879 254:0.051971465 264:0.044330589 277:0.048767962 284:0.032703016 299:0.044579975 304:0.16310427 306:0.042257436 317:0.064192928 323:0.046067063 326:0.062794842 343:0.057057604 346:0.04486566 387:0.11404029 411:0.040344976 414:0.27852356 442:0.045825679 447:0.075752161 496:0.045156978 504:0.057204627 528:0.05634366 570:0.06247478 603:0.057654686 622:0.059433155 693:0.12806313 695:0.053158477 706:0.054821767 787:0.061854724 804:0.05072907 909:0.14223869 987:0.087928459 1225:0.048035126 1252:0.081743225 1263:0.073144883 1294:0.061162755 1296:0.054821767 1324:0.12853596 1379:0.17051932 1395:0.057503138 1426:0.063914753 1530:0.073144883 1649:0.12232551 2150:0.080620475 2225:0.083386675 2475:0.086792842 2703:0.083386675 2722:0.074273355 2856:0.094524235 3011:0.091985017 3373:0.098774962 3577:0.48248634 3896:0.095477842 4020:0.08735048 6461:0.11500782 6607:0.11500782 7073:0.10901675 8236:0.11500782 #
-0.99689611569404668 6:0.032033931 12:0.1439651 15:0.018291857 29:0.019390166 31:0.040698729 63:0.011540214 72:0.033225782 75:0.010820366 92:0.03524521 96:0.033079144 98:0.034632321 142:0.002768955 158:0.038320836 160:0.096783318 169:0.038917106 171:0.046163145 179:0.058207735 209:0.033538587 259:0.064949214 260:0.13462976 276:0.041475385 318:0.06444402 351:0.037889037 359:0.0594442 387:0.037687808 408:0.031438261 414:0.039448254 508:0.041423712 530:0.04388969 531:0.060075339 565:0.05678805 665:0.066015087 684:0.049967419 727:0.057160821 733:0.18078233 769:0.15524149 779:0.072735362 890:0.11213961 916:0.064694442 1049:0.084505931 1059:0.048941333 1148:0.096756302 1149:0.051221076 1225:0.047623664 1273:0.071681 1315:0.081433691 1527:0.13884564 1649:0.060638841 1816:0.058670748 1880:0.074598081 1936:0.071885891 2066:0.071478941 2277:0.7150023 2359:0.095670678 2401:0.072304465 2415:0.077929161 2436:0.10386861 2546:0.089730933 2780:0.10059974 2858:0.32116646 2862:0.090445675 2928:0.092826448 4447:0.089730933 4559:0.10386861 4826:0.11823698 6369:0.11402267 8129:0.10582474 #
-0.70606948500338607 6:0.0091749215 27:0.026715171 53:0.14131865 63:0.019831575 75:0.018594537 80:0.059738822 142:0.014275144 144:0.10909366 179:0.10002857 201:0.11011346 202:0.11392484 281:0.10590798 408:0.10805177 506:0.051328711 561:0.081304461 795:0.21739532 873:0.31825393 1056:0.090094931 1245:0.08972197 1378:0.11251283 1471:0.10626256 1601:0.15808107 2692:0.14981119 2736:0.23981611 2804:0.23981611 5015:0.5572136 5570:0.15191028 8224:0.19594517 8234:0.18573788 8235:0.37147576 #
0.14353497784824543 6:0.021461191 26:0.046444975 29:0.038971432 31:0.12269785 88:0.24581364 102:0.20449421 134:0.076852053 142:0.0055651995 176:0.11124276 205:0.084908105 208:0.24117896 218:0.060868025 355:0.064582273 430:0.083516009 593:0.10335449 671:0.065532126 952:0.19993305 1082:0.14707984 1863:0.12927471 1917:0.13352609 2499:0.16064753 3131:0.18488485 3921:0.16615956 4177:0.19228426 4530:0.17641468 4650:0.17897655 6644:0.65169322 8952:0.23763926 #
-0.81855781436172192 6:0.041439362 11:0.046553679 17:0.056451939 25:0.31100747 37:0.049017336 46:0.086747102 53:0.079784811 59:0.064329103 79:0.070255443 81:0.063076675 87:0.19302513 92:0.06839025 94:0.062192075 97:0.12928766 111:0.064788051 151:0.08181607 178:0.16721706 216:0.0901343 229:0.054253101 242:0.072592102 255:0.096424423 293:0.29416308 309:0.076241404 337:0.15840541 382:0.090993576 399:0.097683989 419:0.12602828 505:0.074520662 582:0.17476043 852:0.10281143 913:0.10812654 921:0.14030051 984:0.11880155 1011:0.12433435 1075:0.28950211 1102:0.12410039 1469:0.23459041 1516:0.16593754 1665:0.22331561 1697:0.14156407 1781:0.13151167 1973:0.16397637 2066:0.2773973 2399:0.15061629 2487:0.1856406 2631:0.15003017 3369:0.16915897 #
1 6:0.029281948 12:0.15791675 27:0.034104802 29:0.12761559 30:0.14080733 31:0.022321422 33:0.032407355 39:0.23527664 41:0.053933069 42:0.035038091 57:0.043722443 63:0.063292876 75:0.035606902 83:0.060697101 84:0.034370877 86:0.090989523 88:0.044718873 108:0.27106354 142:0.042522117 165:0.056861594 168:0.043495227 186:0.033232901 195:0.081557304 218:0.033219673 228:0.088583536 229:0.030669129 231:0.25113326 239:0.24825574 286:0.065629654 296:0.052810464 316:0.15956828 317:0.034905348 350:0.17096254 351:0.041560862 385:0.061274514 408:0.034484942 427:0.062210828 457:0.040382735 502:0.040424097 507:0.093941435 508:0.045438081 534:0.044637922 537:0.065497994 546:0.050597765 567:0.063550681 576:0.057329085 582:0.098791584 643:0.047648575 655:0.044344541 674:0.07754875 686:0.069257103 709:0.051072739 758:0.061350491 811:0.066515349 829:0.04344517 1248:0.075403057 1254:0.080520242 1407:0.071385019 1511:0.070689291 2001:0.076734968 2151:0.089325428 2241:0.08182738 2270:0.086180031 2726:0.58607543 3711:0.11855724 3972:0.10090379 4741:0.10383348 4885:0.11608021 6331:0.10881732 7863:0.13621069 8288:0.12969533 #
1 6:0.021578707 12:0.2182001 20:0.030431079 39:0.43345526 41:0.049681034 42:0.064551435 47:0.02553343 63:0.12826642 75:0.054666143 82:0.080927931 83:0.11182359 84:0.031661104 86:0.083815992 108:0.099877246 110:0.052063726 114:0.037880339 140:0.11436406 142:0.089530766 173:0.040322319 176:0.027962975 181:0.045534845 211:0.053652156 215:0.034367684 218:0.12240265 227:0.038345784 229:0.084753603 239:0.045736697 268:0.31145239 276:0.041907996 283:0.040440265 286:0.030227734 296:0.1459408 309:0.039701164 316:0.36747012 317:0.064306885 345:0.11876682 346:0.044945307 350:0.39371002 355:0.032467954 365:0.057158895 370:0.063796937 389:0.045975719 408:0.063532352 437:0.04852375 455:0.078778125 457:0.074397989 477:0.057680935 507:0.028845057 509:0.050074216 534:0.041118708 537:0.12066837 548:0.1221582 560:0.06426318 609:0.076405145 612:0.062798671 631:0.036205694 655:0.040848456 684:0.050488606 706:0.054919086 780:0.054731321 789:0.055431765 848:0.059624974 891:0.075886644 893:0.16980402 987:0.088084556 1069:0.085889183 1128:0.081129096 1335:0.17396317 1782:0.066426978 2116:0.081503853 2301:0.095647343 #
0.262163558353812 6:0.028149273 15:0.032147318 26:0.12183782 27:0.027321311 28:0.069289386 31:0.03576332 33:0.051922973 37:0.044395868 41:0.043205708 54:0.070256472 75:0.057049282 83:0.024312181 88:0.071648456 96:0.11627094 118:0.36865059 134:0.20160386 142:0.0097326888 172:0.073583089 192:0.075776555 199:0.087720208 242:0.065747954 284:0.056982122 325:0.084256679 388:0.29272109 455:0.068510346 457:0.06470111 475:0.076032221 593:0.18075131 847:0.20012626 903:0.10447117 933:0.10904135 1466:0.11460173 1613:0.10760067 2528:0.10795335 3622:0.70720249 #
0.73334914810472251 6:0.026563389 15:0.045504287 26:0.057486836 29:0.048236527 32:0.099563934 67:0.075129479 85:0.040697001 88:0.10141785 134:0.047561456 142:0.0017220685 153:0.057597775 159:0.039951049 165:0.1289563 176:0.068844847 185:0.038671263 186:0.037684418 192:0.10726114 238:0.13097022 252:0.33548492 274:0.071768545 275:0.089314051 286:0.14884137 312:0.060191482 353:0.074496344 373:0.094814517 420:0.067528032 432:0.062382862 510:0.060037281 530:0.10918351 550:0.054104827 655:0.050284453 667:0.063963026 836:0.075306311 895:0.06905742 913:0.13862218 987:0.054216046 1031:0.081603669 1045:0.034497876 1102:0.079550624 1162:0.077042982 1518:0.17018749 1528:0.59921956 1776:0.076913297 1910:0.081272364 1931:0.086569101 2007:0.089673012 2188:0.10451439 2388:0.10703166 2424:0.093099564 2427:0.21406332 2616:0.088174529 2880:0.099869922 2967:0.11161093 3136:0.10843399 3594:0.11774188 3882:0.11656591 3962:0.11249995 6512:0.13776 6667:0.12034936 9044:0.14706789 9366:0.14706789 #
0.78840109042414996 6:0.017113041 15:0.014657705 17:0.023312721 27:0.012457267 37:0.040484969 85:0.052436788 100:0.026437171 111:0.053510502 132:0.025947748 142:0.0011094152 151:0.067574479 176:0.088704392 185:0.049826685 220:0.068641827 319:0.038810704 387:0.060400296 411:0.032052472 480:0.03146724 493:0.038193587 510:0.038678061 518:0.037310097 643:0.069617294 644:0.040765651 645:0.054435372 796:0.037607297 844:0.04688089 912:0.081374258 1576:0.047423817 1584:0.057439715 1652:0.051249221 1788:0.052680057 1937:0.1474262 1980:0.053123079 3119:0.069396466 3388:0.14876814 3482:0.065254778 3954:0.069396466 4066:0.45997933 5272:0.094746143 5376:0.079494163 6419:0.79494166 6737:0.094746143 #
-0.78674318405664123 6:0.029790653 29:0.027048461 31:0.028386503 39:0.1496025 75:0.030187909 108:0.20682946 142:0.028969312 194:0.059007458 231:0.23952761 243:0.070224769 260:0.093901411 316:0.50731373 317:0.044389684 350:0.21741578 457:0.051355362 511:0.096600056 537:0.16658966 634:0.083674438 668:0.21488692 724:0.17429267 745:0.10116 893:0.11721214 977:0.10239887 1132:0.23064898 1225:0.066432998 1335:0.1601108 2217:0.13204668 2220:0.27676943 2347:0.13838471 2359:0.13345656 2620:0.2699419 2948:0.13204668 3754:0.29524207 #
-1 4:0.012903865 6:0.038781613 12:0.48264968 13:0.019826941 15:0.040882863 25:0.044778574 28:0.044058867 29:0.11917845 31:0.034111094 37:0.028229887 39:0.17977224 40:0.018639613 41:0.082419306 42:0.017848141 53:0.02297469 55:0.029962039 58:0.020011544 60:0.090571225 63:0.070930019 68:0.018313784 75:0.054413673 77:0.022495076 79:0.14161442 80:0.097119585 81:0.018163444 83:0.0077296626 86:0.23174691 98:0.019351076 108:0.13807774 110:0.057581414 138:0.025015676 140:0.042161435 142:0.013150987 144:0.03547151 145:0.050067611 154:0.021565063 160:0.027039213 162:0.048471089 165:0.086894609 169:0.065235697 171:0.025794014 172:0.070183635 178:0.16853033 179:0.048786033 183:0.078732967 184:0.035153121 185:0.0173719 186:0.033857185 190:0.051155642 197:0.033264365 199:0.055778425 204:0.017908717 208:0.022349965 209:0.018739946 215:0.038009956 216:0.051909823 219:0.024943558 229:0.015622625 234:0.021400411 242:0.041806981 255:0.027766202 259:0.10887263 260:0.07522542 269:0.031855099 279:0.033776116 280:0.031251479 284:0.018116537 288:0.030984337 295:0.025329472 296:0.053802509 306:0.023409413 317:0.017780524 327:0.025088435 330:0.029669093 337:0.1368424 345:0.021892279 346:0.04970859 351:0.042341582 353:0.033465244 355:0.017954446 377:0.02296059 387:0.042116709 390:0.054501224 398:0.023203667 399:0.028128903 411:0.022349965 415:0.025954911 433:0.048248678 441:0.021036051 442:0.025386117 459:0.054501224 461:0.032643601 471:0.03109776 472:0.027179537 475:0.024173208 485:0.020644644 496:0.025015676 502:0.020591732 506:0.016689392 508:0.046291638 510:0.026969943 515:0.021553192 526:0.035803095 531:0.067135118 534:0.022738224 546:0.025774123 548:0.067552231 549:0.031855099 550:0.024304967 565:0.19038457 571:0.047088929 597:0.026676368 636:0.030510219 674:0.039502755 689:0.037281942 695:0.05889656 702:0.035536882 707:0.044271588 712:0.027394639 719:0.064219169 730:0.028676623 733:0.033671174 739:0.03047486 763:0.034550983 829:0.022130644 856:0.022389287 890:0.031329438 903:0.033214904 908:0.03173076 909:0.026265392 912:0.028370854 953:0.065195493 984:0.034209877 987:0.048709854 989:0.036078259 997:0.028370854 1000:0.036219388 1009:0.079764344 1031:0.073315993 1060:0.13585024 1064:0.027640464 1079:0.10373499 1134:0.10887263 1167:0.038135357 1192:0.037121441 1225:0.026610089 1229:0.033671174 1273:0.040052313 1288:0.039189901 1300:0.054063331 1308:0.034846518 1380:0.030725634 1393:0.034154385 1433:0.057524074 1457:0.039502755 1462:0.036657996 1472:0.030334936 1497:0.036219388 1501:0.048710708 1511:0.036008596 1525:0.04182218 1547:0.040052313 1566:0.046438191 1587:0.048080754 1607:0.03859793 1610:0.16510513 1665:0.032152779 1666:0.043037049 1691:0.04182218 1722:0.042560097 1755:0.046193834 1788:0.036733437 1797:0.051867496 1840:0.052891999 1865:0.035406951 1880:0.041682255 1886:0.051399633 1951:0.0372013 1975:0.042407095 1989:0.048389673 1995:0.03859793 2003:0.046690069 2018:0.094436683 2020:0.049757071 2034:0.040166795 2040:0.040641442 2056:0.038888566 2058:0.044661444 2104:0.050957073 2120:0.044083413 2229:0.084814191 2255:0.051399633 2270:0.13169838 2279:0.051867496 2314:0.049393218 2331:0.057073291 2380:0.046193834 2456:0.042109415 2565:0.048080754 2590:0.054063331 2625:0.047218341 2658:0.049044851 2666:0.040282901 2678:0.057073291 2858:0.044863559 2862:0.10107443 3118:0.044083413 3221:0.056210879 3421:0.053456731 3513:0.048710708 3722:0.050537217 3773:0.052891999 3853:0.058037389 4137:0.054063331 4209:0.060392171 4221:0.052363731 4234:0.047495838 4265:0.054063331 4413:0.059130389 4429:0.056210879 4468:0.059130389 4473:0.054063331 4547:0.063711047 4650:0.049757071 4686:0.057073291 5148:0.055430729 5673:0.063711047 5680:0.066065826 6021:0.059130389 6097:0.066065826 6110:0.063711047 6328:0.059130389 6563:0.066065826 6983:0.063711047 7770:0.061884537 #
0.13202501102029049 4:0.084236987 6:0.048686162 11:0.043755881 29:0.14145492 30:0.058528963 31:0.18556558 63:0.021047009 83:0.025229784 98:0.063162334 102:0.092781782 114:0.06837289 142:0.010100025 194:0.077147603 220:0.07811369 276:0.15128538 277:0.088180996 286:0.054560166 289:0.084717385 304:0.14746051 308:0.14389123 323:0.083297297 357:0.090137735 373:0.069511525 390:0.088946581 394:0.090712324 408:0.057337012 427:0.10343596 455:0.14219218 500:0.10076837 502:0.067211859 505:0.28016838 553:0.24894924 653:0.099470593 717:0.1973528 796:0.08559344 886:0.083869152 987:0.079495005 996:0.10841417 1021:0.10424975 1033:0.11664217 1043:0.10890142 1045:0.050582975 1207:0.11094449 1380:0.10028913 1395:0.10397572 1455:0.12928709 1625:0.13148426 1665:0.10494737 1808:0.097905122 1822:0.41525301 2050:0.12537025 2185:0.12168907 2244:0.13472669 2285:0.13148426 2564:0.14851853 7461:0.21564028 7705:0.18943527 8505:0.20199245 #
0.23561687236600279 6:0.023863101 11:0.25020996 15:0.02725238 29:0.05777742 31:0.030317787 63:0.017193349 88:0.060738843 97:0.099268079 118:0.20834512 142:0.0061880494 162:0.043080885 199:0.14872684 252:0.057405971 275:0.053489912 308:0.058772534 314:0.063475467 346:0.066271156 355:0.047873493 409:0.040623233 430:0.061908673 505:0.05721755 527:0.075867012 534:0.060628891 587:0.20148946 609:0.056329098 641:0.12588122 655:0.060230412 693:0.09458115 895:0.082716562 1045:0.041321345 1064:0.3685008 1235:0.27971289 1331:0.08991982 3636:0.69149393 6747:0.17615703 #
-1 6:0.029523658 15:0.050575357 26:0.19167979 29:0.053612083 88:0.11272002 134:0.10572357 142:0.015311829 176:0.15303406 192:0.1192145 238:0.2911315 373:0.1053808 409:0.075389177 420:0.15010692 480:0.10857545 561:0.13081339 586:0.10851394 755:0.15407045 772:0.13677382 987:0.24103189 1045:0.076684751 1140:0.14993566 1916:0.36059144 8511:0.68667525 #
0.29045134223165703 6:0.019237904 15:0.021970265 27:0.018672053 29:0.046578877 31:0.048883058 37:0.030341225 42:0.076732077 53:0.14815792 63:0.013860897 75:0.012996293 80:0.0417533 92:0.12699857 97:0.36012477 142:0.003325779 144:0.038124453 161:0.12516108 172:0.10057697 204:0.038496252 205:0.050741326 237:0.1102143 245:0.074145816 277:0.058073226 304:0.048556425 343:0.067944594 346:0.05342634 351:0.045508347 388:0.066684261 413:0.055446342 427:0.068119667 467:0.080492496 490:0.06636288 505:0.092255041 513:0.047986951 530:0.052715708 633:0.066684261 671:0.039162181 697:0.06874653 733:0.21713682 768:0.080140583 847:0.068385594 890:0.20203556 987:0.052352909 1046:0.64841312 1149:0.0615214 1232:0.072604522 1467:0.07879936 1936:0.086341813 2024:0.062452577 2692:0.31412295 2709:0.096003421 4140:0.11621355 5893:0.12475611 6651:0.14201389 #
0.60054471184985714 6:0.033782415 17:0.036816835 31:0.025752096 52:0.22033833 53:0.052034076 59:0.083908334 79:0.045819212 81:0.041137356 85:0.041405648 96:0.041861612 97:0.042159427 98:0.043827157 118:0.044242375 132:0.040978227 151:0.053358823 179:0.073661819 180:0.052066065 224:0.12851107 229:0.10614839 299:0.055932648 309:0.049723133 327:0.11364275 333:0.068162002 336:0.12354467 341:0.056452643 347:0.055503767 355:0.040664006 398:0.15765801 439:0.072821014 444:0.088758983 478:0.052984979 485:0.046756886 489:0.30792922 493:0.12063517 676:0.067561515 720:0.067268409 731:0.07786227 733:0.076259933 795:0.080045797 806:0.072529055 993:0.074247755 1048:0.091771856 1083:0.072432756 1114:0.082687542 1124:0.075115219 1185:0.10633427 1192:0.084074251 1296:0.068782598 1478:0.10822117 1523:0.10889538 1553:0.094092198 1591:0.16038239 1679:0.097472176 1721:0.088528693 1736:0.096745081 1749:0.1057457 1751:0.2761395 1787:0.097105063 1906:0.10633427 2311:0.10026821 2403:0.10160893 2472:0.11445888 2622:0.12244498 2623:0.12244498 2745:0.1118679 3323:0.48977992 3613:0.1110789 3756:0.12730883 5550:0.13144559 5756:0.12926206 6438:0.12554193 6483:0.10889538 #
1 6:0.0023400197 17:0.012751031 26:0.030384751 37:0.03321524 38:0.01906479 59:0.014530278 63:0.020231793 67:0.052946389 75:0.0094848946 80:0.015236099 81:0.056989547 83:0.042441972 87:0.41419408 100:0.014459967 102:0.066891044 111:0.24877702 118:0.015322768 142:0.009708819 144:0.04173572 159:0.014077456 172:0.03670131 186:0.026557539 189:0.017510809 194:0.018539857 214:0.020048019 220:0.037544053 229:0.036763109 234:0.016786458 239:0.039677914 242:0.016396675 286:0.02622344 288:0.024304079 317:0.013947024 323:0.020017734 337:0.017889839 342:0.043719575 348:0.023247372 351:0.016606346 369:0.083699659 396:0.023767542 399:0.022064282 408:0.027558085 411:0.017531289 413:0.020232797 426:0.021065645 430:0.036424652 477:0.025019946 485:0.016193636 496:0.03924454 499:0.017429534 507:0.012511964 513:0.017510809 518:0.020406978 519:0.027978649 534:0.017835839 535:0.02219018 553:0.029913332 572:0.02535795 582:0.03947385 591:0.049211141 593:0.0225385 639:0.026922146 641:0.0185159 662:0.0487861 664:0.026452659 686:0.083018549 702:0.02787509 712:0.064464979 717:0.047427174 726:0.043129522 800:0.020635726 804:0.044087075 844:0.051283557 851:0.026577335 906:0.027380954 953:0.025569636 963:0.11912201 966:0.023373518 971:0.029180659 1009:0.12513413 1010:0.026053736 1012:0.031241074 1094:0.024101155 1098:0.0262501 1143:0.027773174 1162:0.027147453 1218:0.028466525 1245:0.022883158 1305:0.021282699 1308:0.054667141 1316:0.032481477 1352:0.034020316 1379:0.02469885 1410:0.032274343 1411:0.029637136 1430:0.035190929 1437:0.031975657 1486:0.031975657 1527:0.030427255 1543:0.032805271 1570:0.038743988 1576:0.025938738 1581:0.033384096 1624:0.029637136 1651:0.03207368 1652:0.056062128 1795:0.029913332 1820:0.059686322 1844:0.33469978 1884:0.10557278 2034:0.031506792 2042:0.030056018 2150:0.035032388 2154:0.031975657 2206:0.030201947 2218:0.034726586 2246:0.029637136 2257:0.033758216 2261:0.035520259 2549:0.037956808 2564:0.035691485 2646:0.069755331 2658:0.038470726 2825:0.031597864 2983:0.038743988 3119:0.037956808 3212:0.037255682 3370:0.079282679 3388:0.040684808 3447:0.039641339 3739:0.036048278 3783:0.041488428 4084:0.038743988 4109:0.040317815 4148:0.039641339 4395:0.045524463 4606:0.079941347 5153:0.037038017 5831:0.042921141 5861:0.049974877 6230:0.051821966 6414:0.044768229 6770:0.097084329 7423:0.14992464 7712:0.20728786 8506:0.046381813 8894:0.051821966 9195:0.41212991 9371:0.4354023 #
1 6:0.025615644 29:0.018606205 31:0.019526623 33:0.028349727 53:0.078910068 59:0.12724762 74:0.041998539 76:0.042622074 78:0.039358422 79:0.10422777 85:0.03139599 97:0.095902637 111:0.12815545 118:0.067093894 132:0.031071896 137:0.041940574 148:0.090067938 151:0.040459529 160:0.046435144 168:0.038049322 185:0.029833218 186:0.14535956 199:0.047894869 204:0.030755106 224:0.14616601 229:0.02682914 232:0.045473285 243:0.048306499 253:0.11196192 271:0.11308341 274:0.27683175 299:0.042411141 317:0.030534957 319:0.046475023 322:0.044399712 323:0.043825883 327:0.043085024 333:0.15505229 341:0.04280543 349:0.10157546 355:0.030833637 387:0.03616406 389:0.043661471 411:0.038382176 422:0.046716694 426:0.04612013 436:0.090503819 444:0.2019055 459:0.046798185 471:0.053404994 481:0.059039362 485:0.10636076 489:0.058372125 500:0.053018082 506:0.028661128 507:0.027393105 535:0.048582133 591:0.053870279 597:0.045812022 625:0.056956396 626:0.048352066 695:0.050572298 729:0.2205705 756:0.13604572 778:0.048958261 804:0.04826108 806:0.054995432 939:0.074482478 1000:0.062200498 1007:0.23654927 1009:0.045660462 1014:0.062825352 1114:0.062698141 1124:0.056956396 1194:0.078526407 1215:0.060051087 1237:0.1256507 1478:0.32823646 1489:0.060051087 1523:0.082570329 1553:0.071345761 1570:0.084824257 1574:0.078526407 1668:0.1662017 1679:0.073908649 1906:0.080628365 2099:0.074482478 2472:0.17357777 2591:0.074482478 2622:0.18568873 2623:0.092844367 2745:0.25447276 2992:0.078526407 3181:0.092844367 3323:0.092844367 3731:0.095192634 3756:0.096532404 4437:0.095192634 5254:0.10371304 5280:0.099669121 5653:0.098013453 7707:0.10627593 8137:0.11345657 #
0.33741713966371195 27:0.021956496 64:0.065401785 80:0.09819553 97:0.047052365 116:0.16146445 142:0.0039107888 179:0.041105427 206:0.071920849 216:0.06560614 308:0.055715524 337:0.11529868 351:0.053513337 414:0.055715524 535:0.071507029 561:0.066822 574:0.056460902 584:0.10607361 837:0.081827193 1046:0.084718883 1266:0.10272923 1472:0.076677509 1626:0.10837488 1916:0.092098527 2187:0.10536008 2229:0.10719226 2736:0.098549277 2801:0.6242553 2804:0.098549277 3667:0.13665569 4177:0.13512239 7040:0.32208437 8146:0.52615041 #
-1 111:0.21943723 160:0.31803873 712:0.32221931 938:0.52072817 1042:0.39979625 1478:0.56203067 #
-1 6:0.029843872 15:0.081798241 27:0.01737964 29:0.086709701 77:0.045008041 96:0.036981151 142:0.0030955803 145:0.050087519 160:0.054099929 199:0.055800602 205:0.094458379 306:0.046837442 383:0.64349878 408:0.070293419 411:0.089435406 413:0.05160854 414:0.044101559 478:0.046807695 507:0.03191473 513:0.044665463 528:0.062450379 535:0.056601308 658:0.055203352 697:0.063988134 733:0.13473825 881:0.068007283 884:0.06162193 890:0.12536758 1036:0.13494754 1059:0.054714441 1124:0.33178931 1273:0.080136478 1627:0.079687759 2369:0.1556161 2692:0.3898406 2834:0.21165213 3084:0.10582606 3370:0.10111463 3559:0.10948054 4650:0.099553712 5005:0.20568028 6651:0.13218419 #
-1 6:0.013309483 27:0.019377012 29:0.024168726 31:0.050728627 36:0.050845787 53:0.051250532 142:0.0017256715 158:0.047764715 172:0.15656134 179:0.0362763 205:0.052657053 351:0.047226503 539:0.06182643 671:0.081281483 684:0.062281515 688:0.1477502 733:0.15022318 768:0.083166271 781:0.072115041 890:0.069887787 998:0.14731802 1024:0.51523191 1124:0.073984109 1178:0.10533178 1196:0.083531477 1485:0.082986377 1654:0.093935095 1718:0.09459915 1881:0.11570283 2340:0.092373513 2528:0.076563433 2850:0.46433744 2969:0.38839874 3315:0.12539178 4355:0.12539178 5129:0.2842454 6793:0.1421227 7171:0.1421227 #
-1 6:0.0083731292 12:0.056445077 33:0.046334174 54:0.062694319 67:0.094727196 98:0.054313831 132:0.050783228 179:0.045643564 215:0.053342413 218:0.047495581 224:0.079630181 271:0.092410527 318:0.40426996 341:0.069960259 394:0.15600862 443:0.13034087 448:0.075827591 453:0.081215248 531:0.094216093 542:0.23805308 591:0.088044405 603:0.089645252 745:0.11373042 786:0.13253056 820:0.12425973 830:0.29115924 874:0.11441626 1211:0.14557962 1229:0.094506912 1319:0.088378176 1339:0.10106749 1498:0.13765714 1517:0.15558076 1530:0.11373042 1574:0.12834184 1759:0.12709968 1860:0.15358174 2218:0.12425973 2293:0.12480033 2622:0.45522842 2623:0.1517428 3174:0.17369506 4182:0.17369506 4859:0.15777045 #
-1 6:0.012441702 13:0.13781667 17:0.11299373 29:0.075309731 31:0.015807036 33:0.022949444 34:0.066102766 37:0.019622538 42:0.12406207 48:0.050742563 52:0.067623548 53:0.031939324 58:0.027819971 63:0.0089642387 72:0.051618431 78:0.06372223 79:0.14062271 81:0.050501499 97:0.077634335 100:0.025627507 118:0.054313309 142:0.0010754382 144:0.024656175 146:0.074481249 148:0.036455538 158:0.089300886 160:0.037589807 165:0.040266849 166:0.030944295 185:0.048300695 186:0.047068123 199:0.038771473 206:0.039555412 216:0.2886593 219:0.069352873 229:0.021718511 232:0.073622338 242:0.02905995 252:0.059860453 271:0.13731357 274:0.089639448 275:0.027888479 284:0.025185538 287:0.11548579 306:0.032543674 312:0.037589807 322:0.17971051 323:0.035477575 333:0.16735558 335:0.16474971 337:0.031706292 341:0.034651507 342:0.038742263 367:0.035397533 377:0.031919722 405:0.039441045 409:0.021180071 411:0.031070832 419:0.050451431 426:0.11200439 429:0.047328547 430:0.032277837 444:0.10896329 480:0.030503524 484:0.04583754 489:0.1417588 504:0.044054937 532:0.095904447 561:0.036751118 570:0.048113633 580:0.15010206 598:0.043829598 603:0.044401541 625:0.046106886 628:0.045065772 643:0.033742599 656:0.04093888 684:0.038813829 715:0.051172532 730:0.039866127 774:0.093046494 810:0.061028857 814:0.046038948 881:0.094505869 886:0.035721138 895:0.21563309 900:0.12106806 906:0.097054936 920:0.27240822 930:0.036310576 963:0.035186801 1000:0.050352048 1003:0.043829598 1023:0.058540337 1026:0.057382125 1034:0.10457808 1039:0.12106806 1058:0.046523247 1126:0.044226918 1170:0.11043209 1201:0.10578252 1260:0.055368789 1320:0.17501679 1332:0.0509618 1379:0.043773953 1386:0.059383631 1404:0.11232973 1424:0.038565289 1432:0.049312558 1476:0.053397086 1497:0.050352048 1503:0.056164864 1509:0.052406959 1551:0.044401541 1613:0.047558438 1645:0.047404662 1679:0.059829935 1724:0.063888632 1751:0.056499571 1759:0.062952824 1873:0.054916572 1979:0.061284583 1990:0.055216044 2141:0.13733251 2227:0.054916572 2402:0.057200056 2403:0.062369142 2472:0.070256643 2554:0.062952824 2649:0.068666257 2745:0.068666257 2907:0.061813947 2979:0.12843697 2987:0.070840321 3095:0.065642752 3323:0.075158626 3541:0.078144141 3576:0.066427834 3776:0.070840321 3810:0.074315332 3969:0.062952824 4498:0.082202837 4512:0.068181954 4522:0.082202837 4684:0.066841677 4734:0.088570841 5094:0.079343066 5823:0.076069452 6845:0.088570841 6875:0.088570841 7641:0.091844454 7982:0.088570841 #
0.11669347972105426 12:0.17375024 31:0.098237887 108:0.35788998 158:0.092498161 174:0.094465993 205:0.10197236 220:0.20676583 231:0.27631307 531:0.29001763 539:0.1197292 800:0.11364684 862:0.12400298 1482:0.45803243 2171:0.1783098 2280:0.17504348 2418:0.45241311 8112:0.28539839 #
1 2:0.11240888 6:0.013767912 15:0.04717011 26:0.059591319 29:0.10000475 41:0.063396208 51:0.18701468 60:0.10449989 82:0.10326927 92:0.09088856 94:0.16530274 117:0.28428125 142:0.0071404404 176:0.2854605 206:0.13131534 215:0.087710775 242:0.096472695 252:0.099361822 264:0.11333824 287:0.12779588 291:0.11081631 592:0.13562196 1485:0.17168948 1743:0.40863982 1795:0.1760003 1836:0.14682372 1942:0.17857698 2682:0.20260249 3124:0.53570223 #
0.76824300655174371 6:0.01758761 12:0.19760314 26:0.025374675 27:0.07681635 29:0.042583179 42:0.035074867 57:0.021884168 60:0.022248631 63:0.012671862 64:0.025423642 73:0.031852521 75:0.011881426 108:0.24421324 117:0.030262563 127:0.029152602 142:0.01368217 145:0.024598008 155:0.030444948 172:0.1379237 185:0.1024169 232:0.078054488 243:0.027639225 248:0.035659112 254:0.028289508 259:0.10697734 308:0.086633198 351:0.062406726 374:0.03783302 408:0.069042273 414:0.021658299 437:0.026366016 438:0.032685287 439:0.094779156 462:0.10805952 475:0.023752391 496:0.024580194 530:0.024096787 533:0.036712956 561:0.025975719 568:0.041234002 592:0.057749402 598:0.030978795 667:0.028233264 674:0.23289046 727:0.031383045 728:0.040429045 777:0.040429045 856:0.021999525 882:0.022012446 960:0.03378018 1000:0.035588868 1190:0.031721741 1201:0.037383582 1210:0.28170747 1231:0.046396345 1331:0.033136405 1410:0.040429045 1459:0.044709593 1479:0.36906096 1568:0.043500893 2076:0.073107369 2669:0.10505227 2753:0.041668858 2829:0.058101028 2970:0.095094576 3444:0.059340838 3814:0.049657449 3881:0.05145216 4553:0.60807228 5067:0.062601939 5350:0.059340838 5395:0.062601939 5541:0.064915732 5542:0.25966293 6375:0.059340838 #
0.68405440602107748 4:0.013053949 6:0.033196885 12:0.12206584 17:0.082224347 25:0.022649696 26:0.026124593 27:0.017574793 29:0.043841675 31:0.023005227 42:0.018055731 50:0.057291627 63:0.019569546 67:0.0170711 77:0.022756716 78:0.023184998 80:0.019649835 81:0.018374704 88:0.023044407 98:0.019576149 100:0.018648867 101:0.029331492 108:0.027936742 110:0.087376714 111:0.018873241 114:0.021191077 132:0.018303625 138:0.025306633 140:0.021325907 142:0.00469551 165:0.058603521 175:0.029213198 176:0.046929274 178:0.024355786 179:0.016451154 183:0.026549568 185:0.052721858 215:0.019226024 220:0.096840329 229:0.031608663 265:0.02850984 268:0.029038863 274:0.032614838 295:0.025624078 299:0.024983272 308:0.022298386 317:0.01798733 339:0.046947096 346:0.075430125 353:0.033854473 355:0.090816364 386:0.024035415 394:0.056229651 422:0.027519559 434:0.026114196 437:0.027145233 462:0.074168727 466:0.027886556 475:0.024454365 485:0.020884762 496:0.025306633 502:0.020831235 506:0.016883506 507:0.016136548 531:0.067915969 561:0.053486802 582:0.025454504 586:0.022184519 591:0.031733543 609:0.021371342 629:0.036859538 643:0.049108263 654:0.031536847 662:0.031459458 671:0.018430412 709:0.026318664 719:0.064966105 720:0.060093164 757:0.028673278 764:0.027911611 780:0.061235763 795:0.071507648 800:0.053227354 807:0.039241705 836:0.034222562 858:0.060554139 880:0.070998028 937:0.040870581 964:0.036151364 969:0.067504488 987:0.0246382 993:0.033164028 1012:0.040291283 1021:0.032310534 1037:0.033752244 1042:0.034385461 1116:0.035191152 1128:0.1361561 1134:0.036712974 1143:0.035818767 1176:0.034062803 1177:0.040751431 1223:0.037084363 1229:0.034062803 1268:0.040870581 1380:0.062166005 1386:0.043212842 1440:0.037393954 1530:0.081982933 1584:0.040518161 1606:0.047767535 1614:0.038135991 1795:0.038578909 1838:0.046257813 1855:0.039046861 1865:0.035818767 2047:0.041493472 2066:0.040403944 2123:0.049277261 2240:0.040991466 2246:0.0382227 2301:0.053507186 2418:0.58270049 2557:0.051125016 2564:0.046030931 3350:0.048338834 3482:0.046030931 4141:0.064452067 4354:0.054078486 5156:0.60150814 5300:0.058712419 5711:0.11547422 5760:0.059818134 6302:0.059818134 7033:0.062604316 8314:0.14038344 #
0.63628680314012376 6:0.021655688 12:0.048661891 15:0.049462896 26:0.062487859 27:0.042037446 28:0.05330544 29:0.026216412 31:0.027513295 63:0.01560291 80:0.047000777 94:0.043334391 97:0.045042735 108:0.066822372 132:0.043780752 134:0.051699027 142:0.014975028 176:0.11225092 192:0.058296122 226:0.055971961 259:0.26344317 265:0.068193175 317:0.043024197 355:0.043445043 387:0.050955683 426:0.064983934 550:0.058811635 592:0.071107052 678:0.07811819 994:0.082644641 1049:0.22851196 2058:0.10806896 2289:0.1222868 6523:0.13412781 7559:0.3197239 8293:0.15986195 8343:0.15986195 9051:0.54486459 9064:0.54486459 #
-1 6:0.010728545 11:0.096421026 12:0.072323442 15:0.036756963 29:0.038963985 40:0.067034006 108:0.099314339 142:0.005564136 144:0.12756689 145:0.090029575 204:0.064405479 231:0.11501517 278:0.092620626 320:0.10183506 405:0.10203066 478:0.084134266 505:0.077172838 531:0.24143936 565:0.11411396 582:0.090490051 764:0.19845 882:0.080566324 917:0.13051359 1045:0.055732645 2164:0.13847019 2571:0.14283925 2902:0.15362045 2941:0.15419206 3610:0.30954999 4201:0.17517929 4473:0.19442903 4871:0.36349601 7018:0.22255659 8961:0.23759384 9894:0.4990592 #
-1 6:0.018685039 15:0.021338876 28:0.04599319 29:0.02262014 31:0.02373912 80:0.04055338 108:0.11531183 110:0.060109425 142:0.0064604036 158:0.08940848 159:0.037469458 179:0.033951931 199:0.029113637 205:0.049283106 245:0.072014995 252:0.044949431 332:0.079999022 355:0.037485406 408:0.036675181 462:0.0765348 499:0.046391565 513:0.046607889 674:0.41237053 881:0.070964798 916:0.075471111 922:0.17707561 977:0.17126866 1005:0.065656878 1135:0.25379485 1190:0.067402214 1245:0.060907282 1305:0.056647398 2217:0.11042826 2408:0.10551193 2465:0.11042826 2546:0.41871253 4535:0.11424166 5049:0.26603267 5212:0.13301633 5457:0.12345281 7301:0.25840586 7654:0.47012201 #
0.10405192144758837 6:0.030031307 26:0.1733117 27:0.058295973 29:0.03635595 41:0.046094399 63:0.021637538 64:0.17364614 94:0.060094528 97:0.062463596 134:0.0716943 142:0.041533627 143:0.088207081 176:0.051888473 192:0.080842905 198:0.087162592 226:0.077619843 265:0.094567761 317:0.059664361 327:0.084186807 387:0.070663452 441:0.070588611 496:0.083942652 599:0.093861185 679:0.12593158 1045:0.05200221 2055:0.15421194 2165:0.14986603 2216:0.13637652 2236:0.42844424 2683:0.14179735 3653:0.15195312 7697:0.20765987 7912:0.69848239 #
-1 2:0.011467878 6:0.039328609 15:0.0096245259 26:0.036476798 27:0.049078058 28:0.020744421 29:0.03060725 30:0.016885575 31:0.021414228 33:0.015545122 57:0.020972731 60:0.10661008 63:0.036432307 68:0.017245512 75:0.028466465 80:0.01829089 81:0.034207888 83:0.050951455 84:0.016486982 85:0.017215492 92:0.018544778 106:0.019663548 132:0.017037781 139:0.068944812 140:0.019851048 142:0.016754648 162:0.015214565 169:0.040953599 173:0.041994326 176:0.014561244 179:0.015313422 189:0.02102167 190:0.024085827 205:0.066684842 228:0.10622913 239:0.023816608 252:0.020273652 256:0.019117365 278:0.024251992 284:0.017059771 286:0.047221735 315:0.03979199 320:0.026664723 339:0.043700323 345:0.020615268 351:0.019935867 355:0.016907135 408:0.066166788 411:0.021046257 412:0.028631052 422:0.025616357 457:0.019370744 507:0.030041147 513:0.063065015 534:0.021411868 546:0.024270678 586:0.041300558 631:0.018853499 641:0.02222828 647:0.025375124 655:0.021271139 664:0.095269002 713:0.028090483 716:0.1344896 726:0.02588843 727:0.030075997 739:0.22957771 757:0.026690288 784:0.055170707 800:0.024773125 823:0.032007426 850:0.10300477 856:0.021083284 908:0.029879857 987:0.022934267 997:0.026715938 998:0.062187798 1009:0.025037188 1017:0.033102583 1018:0.030483916 1112:0.033843111 1117:0.033525869 1122:0.0343104 1175:0.029764524 1225:0.025057882 1229:0.031707082 1288:0.036903892 1471:0.065071143 1472:0.028565452 1551:0.030075997 1598:0.02939209 1649:0.095718019 1782:0.034590717 1792:0.033161648 1806:0.077247716 2008:0.049806729 2020:0.046854664 2387:0.038156573 2555:0.037933137 2682:0.041338738 2686:0.17139007 2781:0.047984667 2866:0.038504355 2912:0.045869336 3157:0.043499276 3298:0.085695036 3302:0.051526695 3699:0.04264196 5004:0.10439474 5060:0.053744119 6483:0.045276128 6786:0.47995746 7381:0.056869399 7511:0.062212106 7667:0.062212106 8969:0.062212106 9648:0.13067478 9807:0.56544077 9814:0.35340047 #
0.28926935339658105 6:0.01616648 17:0.017618595 26:0.069972984 27:0.018829167 31:0.012323594 41:0.014888148 48:0.019780139 63:0.0069887638 75:0.0065528238 88:0.074067496 94:0.019410087 96:0.020032758 97:0.020175276 102:0.24646921 134:0.023156725 140:0.02284801 142:0.0083844084 153:0.056086414 172:0.050711628 180:0.024916071 198:0.05630574 215:0.020598251 226:0.025070632 239:0.02741226 252:0.023334416 275:0.10871307 289:0.056261655 299:0.16059849 308:0.023889897 312:0.029306032 351:0.022945635 373:0.023081647 405:0.03074931 406:0.060632929 409:0.016512558 423:0.024497099 437:0.02908268 475:0.026199756 480:0.023781376 485:0.022375377 505:0.023257827 506:0.01808854 507:0.034576535 631:0.021699859 641:0.025584141 671:0.019745853 681:0.035380263 742:0.033183996 755:0.033746187 761:0.032878049 790:0.048849285 799:0.032618739 800:0.028513186 882:0.024280533 895:0.067245364 903:0.035999462 1017:0.076200329 1045:0.016796328 1083:0.034662493 1159:0.065756097 1324:0.038587354 1359:0.035893213 1418:0.041044664 1424:0.030066544 2577:0.046469361 3929:0.11243156 4871:0.054773983 5003:0.057938252 7708:0.061858002 9253:0.89485931 #
1 6:0.011157289 11:0.025068576 17:0.030398663 29:0.02026055 37:0.079185665 53:0.08592625 58:0.074843965 64:0.048385017 67:0.063112527 72:0.034717221 91:0.13372757 111:0.034887556 132:0.06766922 160:0.2528193 185:0.032485798 199:0.052153379 218:0.031644199 232:0.099032953 252:0.040260591 280:0.11688177 323:0.0477226 330:0.11096358 377:0.042936757 389:0.04754357 415:0.048536196 437:0.050178498 448:0.050520562 505:0.080256894 510:0.050434325 513:0.0834921 534:0.042520925 629:0.068135582 636:0.05705471 740:0.079879791 762:0.14854753 839:0.088818155 853:0.059032526 903:0.062112529 930:0.048843108 1045:0.028979944 1048:0.07577353 1083:0.059805762 1088:0.14330807 1094:0.17237262 1216:0.11945331 1322:0.12535207 1340:0.14979723 1431:0.065163672 1464:0.071313873 1525:0.078208297 1579:0.070024118 1625:0.075329825 1645:0.063766301 1791:0.078208297 1990:0.2228213 2041:0.087797321 2134:0.30400121 2202:0.078208297 2841:0.38447332 2861:0.095290735 3005:0.36946517 3270:0.21706213 3813:0.096993238 4450:0.21345636 4481:0.10511545 4482:0.10511545 4483:0.10511545 4505:0.10853107 5811:0.10232469 #
1 17:0.065225452 27:0.01742677 29:0.065208636 31:0.022811467 34:0.047697145 36:0.045728303 40:0.037395187 42:0.035807319 48:0.036613829 53:0.046092309 67:0.033854637 72:0.074491642 73:0.19510609 78:0.045979448 79:0.16234848 81:0.036439888 83:0.015507412 118:0.039190341 126:0.056863558 142:0.003103975 146:0.21497092 165:0.1743298 178:0.096602604 185:0.034851875 209:0.037596475 216:0.26035646 229:0.062684879 232:0.053122971 271:0.13210674 274:0.25872114 276:0.046493556 287:0.11110665 306:0.093928918 308:0.044221159 337:0.04575602 355:0.072041176 367:0.051082928 387:0.042247716 389:0.051006369 402:0.045617905 411:0.044838972 444:0.078623608 478:0.046934631 489:0.27276683 543:0.066245437 557:0.056326855 597:0.053518694 628:0.065035366 757:0.056863558 827:0.10224268 842:0.086673602 856:0.044917859 862:0.05758857 864:0.089205004 881:0.13638341 886:0.051549926 895:0.062236931 920:0.23587082 930:0.052400559 936:0.070031017 952:0.055756062 993:0.065769412 1034:0.075459413 1094:0.06164242 1120:0.096460626 1156:0.083904542 1164:0.19048412 1194:0.091736414 1201:0.15265697 1294:0.13595127 1378:0.073394075 1393:0.068521246 1527:0.077822395 1706:0.090006225 1738:0.08081641 1776:0.069316916 1854:0.099823691 2185:0.07479582 2194:0.18257296 2402:0.082546607 2472:0.10138883 2666:0.08081641 2745:0.09909372 2979:0.18535011 2987:0.10223116 3070:0.093670607 3095:0.094730437 3136:0.097724453 3323:0.108463 3475:0.097080387 3541:0.11277145 3756:0.11277145 3810:0.10724603 4330:0.10724603 4512:0.098394819 #
0.65957555993979211 6:0.031250387 11:0.070214421 13:0.051924057 15:0.0089222202 17:0.085143439 18:0.013940204 25:0.019544831 27:0.0075828028 29:0.10403737 30:0.015653428 31:0.019851623 37:0.036965113 47:0.012325879 48:0.015931549 53:0.1002793 56:0.048084512 58:0.01746917 59:0.01617069 60:0.11859684 63:0.0056289714 67:0.014730959 68:0.015987102 75:0.0052778511 77:0.019637179 78:0.040013503 79:0.052981265 80:0.067824788 81:0.015855862 83:0.026990576 97:0.048749417 98:0.01689261 102:0.049628522 111:0.016286058 138:0.021837549 139:0.042609256 142:0.0020259202 145:0.021853374 151:0.020566467 159:0.015666747 160:0.51928812 162:0.014104352 179:0.014195996 183:0.091640405 185:0.03032976 186:0.014777891 190:0.022328276 194:0.020632938 199:0.012173007 203:0.019742519 204:0.015633497 206:0.02483828 215:0.016590482 216:0.045314915 232:0.069345206 237:0.022379255 242:0.018247798 243:0.024555255 265:0.024601653 274:0.14071965 275:0.017512189 286:0.014591984 292:0.10271957 299:0.021558516 307:0.025008708 317:0.01552159 327:0.087604254 331:0.020357827 337:0.11945719 341:0.04351788 342:0.048655346 345:0.038221929 347:0.021393208 355:0.015673416 364:0.024128869 367:0.022227397 369:0.023287257 373:0.018590689 375:0.018461401 383:0.031195663 385:0.027247338 387:0.018382985 389:0.022194086 408:0.015334643 426:0.023443876 441:0.018363517 444:0.034211002 448:0.02358379 454:0.025984 458:0.027417881 473:0.022928493 478:0.020422375 483:0.025285015 485:0.03604367 502:0.017975647 507:0.027849033 508:0.020205248 509:0.024172572 534:0.039698873 535:0.024695367 549:0.027808053 550:0.042434264 553:0.033290435 560:0.031022081 567:0.028259493 576:0.025492897 580:0.023563635 586:0.13400394 597:0.023287257 609:0.018441716 631:0.017477753 633:0.027080771 634:0.029258156 638:0.031806756 654:0.027213711 658:0.072256297 662:0.027146932 667:0.025083011 671:0.015903933 673:0.026331216 676:0.026040711 695:0.02570701 702:0.031022081 707:0.038647085 712:0.047828551 726:0.023999341 730:0.02503339 740:0.037289139 763:0.03016144 769:0.037861079 804:0.049064334 811:0.029577814 837:0.028259493 841:0.04011799 851:0.029577814 854:0.031313773 872:0.029719312 876:0.050265957 887:0.032908235 908:0.027699511 913:0.027180243 942:0.033694237 966:0.026012298 984:0.02986367 997:0.024766466 998:0.11529987 1002:0.038815223 1005:0.027452484 1007:0.030060798 1009:0.023210216 1014:0.12774204 1030:0.038987409 1034:0.032834187 1055:0.028416542 1061:0.033777811 1074:0.034034561 1093:0.033058669 1114:0.031870842 1124:0.057904374 1143:0.24726927 1167:0.033290435 1184:0.034300882 1216:0.027881339 1227:0.028456351 1229:0.058786809 1251:0.034211002 1263:0.035372272 1308:0.030419426 1321:0.030212298 1379:0.027487256 1382:0.034122236 1428:0.043768067 1439:0.030687077 1442:0.03916385 1446:0.027180243 1476:0.033529967 1558:0.031373568 1624:0.032983053 1652:0.031195663 1658:0.038011517 1669:0.038987409 1694:0.040985167 1697:0.035585586 1702:0.040538434 1713:0.042813927 1734:0.036032323 1739:0.041972313 1741:0.039530363 1771:0.037153032 1781:0.066117339 1794:0.042813927 1797:0.36222371 1799:0.044869542 1819:0.14459404 1836:0.055543378 1838:0.079833396 1844:0.033862375 1865:0.030908659 1884:0.03916385 1947:0.036148511 2024:0.025362264 2056:0.033947948 2099:0.037861079 2107:0.033369388 2185:0.032545444 2211:0.04011799 2229:0.074038938 2318:0.11975009 2383:0.041461706 2395:0.044869542 2403:0.03916385 2411:0.043768067 2412:0.038322236 2423:0.033611633 2472:0.044116694 2621:0.044116694 2658:0.042813927 2659:0.040538434 2745:0.043118034 2956:0.043118034 3182:0.047194831 3350:0.041712452 3624:0.045277964 3681:0.057672467 3739:0.04011799 3820:0.041712452 3958:0.04982239 4234:0.041461706 4354:0.046665296 5080:0.057672467 5280:0.050664004 5297:0.045277964 5582:0.048388507 5601:0.046172313 5629:0.052719619 5709:0.055616848 5975:0.050664004 5978:0.091422312 6016:0.05402239 6198:0.057672467 6220:0.055616848 6713:0.057672467 7020:0.098139085 7324:0.055616848 7876:0.12113939 7877:0.18170908 8182:0.05402239 #
1 68:0.19888686 111:0.20260602 232:0.28756204 339:0.25199077 829:0.24033777 1074:0.42340553 2250:0.5403595 2686:0.49414641 #
0.51892756295996023 6:0.014022267 26:0.020230746 29:0.01697538 37:0.022115339 38:0.038081102 60:0.035476822 72:0.029087957 75:0.0094728349 83:0.01211086 114:0.032820515 132:0.028348459 142:0.0024241188 154:0.067576423 162:0.025314886 252:0.033732492 274:0.050513517 275:0.031431366 303:0.041761912 314:0.037299007 327:0.039308641 373:0.033367086 398:0.036355581 415:0.040666237 437:0.084084496 448:0.042328846 465:0.079490796 493:0.041727297 506:0.026148994 513:0.03497709 583:0.14712265 609:0.066199414 643:0.038029179 644:0.13361199 655:0.035392169 720:0.046535827 772:0.086614341 796:0.082173526 869:0.062577195 880:0.16494149 882:0.03510021 1296:0.047583334 1382:0.061243545 1433:0.045064453 1509:0.059064616 1561:0.062230561 1595:0.058541082 1873:0.061893046 2143:0.073561326 2684:0.08053311 2706:0.072759509 2838:0.14058474 2907:0.13933329 2913:0.068781823 2934:0.40633079 3051:0.070292369 3191:0.08053311 3439:0.084706604 4080:0.085733138 4293:0.074866675 4683:0.085733138 5954:0.62595832 6627:0.096960895 6659:0.099822678 8189:0.38784358 8363:0.10351215 #
0.2299422722145259 6:0.0073970538 12:0.19946055 27:0.021538448 31:0.028193608 41:0.034060732 63:0.031977437 64:0.12831309 65:0.052919958 75:0.044974156 80:0.096325904 87:0.068911158 134:0.052977372 142:0.0095908185 158:0.053092692 172:0.058008395 176:0.076684348 200:0.071459897 256:0.050339196 327:0.062208518 345:0.10856685 370:0.17495371 480:0.054406434 506:0.041382506 507:0.039551664 586:0.054375611 727:0.07919509 993:0.081287064 1208:0.12531054 1395:0.078986928 1844:0.096183822 1884:0.11124231 1916:0.09034498 2523:0.11514672 2682:0.10885177 3365:0.48312631 3614:0.11776923 6148:0.14974657 6412:0.17204419 6701:0.65525925 7621:0.15797596 #
-1 111:0.1833868 122:0.31563011 160:0.26578948 190:0.25142431 214:0.25123388 422:0.26740104 534:0.2235117 641:0.23203398 1506:0.41110274 3740:0.57049465 #
-0.51380267437041582 6:0.024749869 10:0.27833748 17:0.089909889 85:0.050558079 96:0.10222966 98:0.10702969 109:0.09078943 111:0.051593322 142:0.0064180018 220:0.066182524 224:0.078458779 277:0.074712135 287:0.076577358 290:0.085790366 331:0.064492457 347:0.067772493 473:0.14527237 479:0.10448848 493:0.073650368 570:0.095710866 591:0.086749226 597:0.073772728 606:0.21244213 678:0.089279778 690:0.10310214 800:0.14550634 855:0.13296594 882:0.061953291 896:0.10448848 1018:0.0895245 1160:0.10448848 1245:0.080676697 1255:0.12983872 1283:0.10222295 1330:0.10895164 1332:0.10137663 1343:0.57375228 1405:0.11686025 1486:0.11273315 1507:0.22615749 1560:0.12583365 1760:0.25166729 1848:0.1421442 2010:0.12090518 2181:0.14783305 2710:0.16050074 2803:0.1421442 #
-0.55906688015961559 6:0.023571437 12:0.068100065 39:0.033820257 42:0.040292896 55:0.13528103 58:0.022588434 59:0.062728323 63:0.014557034 69:0.034163199 72:0.020955801 75:0.013649006 100:0.020808263 140:0.023795284 142:0.013098037 145:0.028257413 162:0.036475144 165:0.09808404 173:0.025169123 180:0.025949089 191:0.1738455 201:0.080826931 214:0.028849613 275:0.02264406 284:0.020449407 293:0.063742906 367:0.028741041 370:0.039821941 377:0.051834457 391:0.034847911 429:0.03842843 473:0.029647591 508:0.02612631 511:0.087352507 519:0.040261995 555:0.0388056 580:0.030468857 605:0.19582443 664:0.076132104 674:0.49048483 777:0.32510525 844:0.036899175 881:0.038367037 977:0.046298102 1045:0.0174927 1046:0.1134964 1053:0.1512375 1055:0.073487781 1188:0.041463606 1193:0.041045465 1214:0.048956107 1294:0.038245466 1334:0.052142221 1427:0.10222913 1447:0.043785598 1600:0.050189856 1642:0.10428444 1670:0.11318822 1763:0.17731984 1847:0.11709296 1950:0.11408981 2077:0.12513711 2163:0.042551849 2211:0.051874395 2286:0.065510869 2481:0.066744618 2597:0.063449159 2704:0.4137463 2737:0.058018371 3324:0.061025076 3372:0.06442263 4082:0.13102174 4596:0.065510869 5807:0.14383025 6614:0.071915127 7411:0.13633776 8442:0.25417092 #
-0.52032354319497232 6:0.0079738833 21:0.24118738 69:0.16179696 72:0.049623352 84:0.046798345 100:0.049273983 140:0.1126945 142:0.033083905 218:0.090461798 226:0.061828636 239:0.067603506 254:0.076955505 261:0.10963393 336:0.14580525 408:0.046953652 434:0.068998851 443:0.12412596 485:0.055181656 507:0.04263594 514:0.084704384 537:0.089180082 727:0.085370801 761:0.081083111 903:0.088781066 959:0.08864966 1074:0.31263468 1505:0.53605962 2061:0.29632476 2362:0.44448712 2375:0.24825193 2734:0.13202454 4084:0.13202454 #
0.31829173069756811 6:0.033615112 29:0.091562651 30:0.050513782 31:0.032030702 78:0.064562 81:0.10233408 84:0.04932138 117:0.17352207 144:0.049962219 159:0.05055676 172:0.065903224 179:0.091621272 185:0.048937231 205:0.13299334 229:0.044009462 254:0.32441759 301:0.076170377 309:0.061846111 322:0.072831534 365:0.089041606 408:0.049485061 411:0.06296061 424:0.086555153 582:0.070881777 641:0.06649667 768:0.10502449 849:0.52512246 2151:0.12817983 2764:0.17012678 2970:0.27263069 3084:0.14899856 3365:0.27443942 3799:0.16349329 3930:0.14611249 4456:0.15229824 6746:0.18610968 8964:0.37221935 #
1 4:0.038321678 6:0.017718919 15:0.030353308 27:0.05159324 28:0.13084526 31:0.033767514 63:0.019149706 64:0.076840363 73:0.28881299 75:0.035910398 86:0.068823807 131:0.11763237 142:0.011486934 158:0.063589178 173:0.06621971 185:0.051590774 202:0.2200155 209:0.055653568 221:0.084336437 239:0.075111523 260:0.11170159 316:0.12069626 383:0.10612734 432:0.083224081 528:0.092695177 565:0.28270042 592:0.087270841 923:0.14889854 933:0.1029562 1132:0.13718566 1138:0.087362744 2025:0.13865937 2767:0.13943115 5408:0.18920799 6075:0.5886035 9637:0.41211504 #
1 6:0.023760097 11:0.05338499 15:0.02035106 20:0.16753678 30:0.035704549 54:0.044476297 63:0.064196758 64:0.051519357 75:0.060192343 80:0.038676087 81:0.036166288 83:0.030781958 114:0.041709661 142:0.018484019 151:0.046910901 176:0.030789752 178:0.047938645 179:0.032380234 213:0.061325114 218:0.067388162 220:0.047651861 229:0.062214229 278:0.051280838 284:0.036072887 314:0.047401115 317:0.035403833 322:0.051479358 339:0.046202164 345:0.043590985 367:0.050699387 375:0.042109367 404:0.099764884 408:0.034977417 412:0.060540359 455:0.043370899 507:0.031761002 508:0.046086982 530:0.048830569 631:0.039865725 662:0.061920553 796:0.052214749 808:0.061996538 844:0.065090388 853:0.0628566 884:0.061325114 886:0.051162876 912:0.05649085 987:0.04849451 991:0.063099258 1010:0.13227224 1056:0.058329232 1359:0.065940931 1366:0.064369902 1389:0.075755395 1418:0.075404882 1445:0.091979221 1730:0.083846495 2298:0.082995951 2461:0.81170863 2611:0.071977414 2642:0.082452625 3085:0.10764863 3565:0.10234479 3700:0.096351482 4020:0.096351482 4050:0.092465781 4190:0.10146358 4237:0.1064408 5323:0.11773795 7766:0.12685876 8160:0.12685876 #
0.33024019916444752 6:0.014557798 15:0.024938166 20:0.082119748 26:0.063010164 27:0.021194408 28:0.053750992 29:0.026435543 40:0.13643987 51:0.049435999 60:0.055247601 63:0.078666635 75:0.014751925 82:0.05459699 83:0.018860087 84:0.042719517 142:0.030200392 179:0.0396787 204:0.043696601 218:0.041288689 234:0.052216202 317:0.086767629 553:0.093048848 655:0.055115774 805:0.094886646 930:0.063729465 1282:0.1023919 1363:0.082412459 3046:0.11156967 3972:0.12541318 7125:0.48359448 7432:0.15545258 7433:0.77726287 #
0.62650355952556225 6:0.0066348277 15:0.02273152 26:0.057434727 28:0.048994854 29:0.024096401 30:0.039880902 33:0.073429957 63:0.028682336 75:0.040339816 80:0.043200023 114:0.046588432 142:0.015484568 172:0.052030947 204:0.039830122 205:0.052499481 208:0.049707737 213:0.068498299 317:0.039545011 333:0.066934697 404:0.055717178 437:0.059678596 441:0.046785507 561:0.058795173 579:0.077906929 644:0.063220344 743:0.084224969 768:0.0829174 784:0.26060796 1027:0.069333524 1271:0.08461649 1332:0.081529699 1411:0.084032327 1561:0.08833573 1598:0.069419198 2976:0.089591727 4944:0.13150974 8898:0.58773834 9060:0.6677382 #
-1 6:0.016403262 9:0.041827247 15:0.018733017 27:0.015920788 29:0.019857815 30:0.032865804 31:0.020840149 73:0.35649088 86:0.042475685 98:0.03546758 117:0.16934811 131:0.072598659 142:0.011342946 172:0.042878643 173:0.040868528 179:0.029805792 204:0.065647908 215:0.034833234 337:0.041801885 340:0.12519959 389:0.046598509 508:0.042422768 571:0.04315342 609:0.038720068 633:0.1137171 689:0.34166065 726:0.050388809 733:0.18514243 811:0.062101323 862:0.052611891 873:0.063220672 933:0.2541641 987:0.089277759 1017:0.064430326 1088:0.070229709 1119:0.38026091 1248:0.070399232 1393:0.062599793 1472:0.055599324 1663:0.10159609 1720:0.07109715 2043:0.095974751 2066:0.073202863 2840:0.1063737 2968:0.083397701 3289:0.18841542 3696:0.22684988 4709:0.22137932 5536:0.1919495 5750:0.38151485 6105:0.12108862 #
0.21045148553258675 6:0.018463843 28:0.068173081 31:0.035187144 142:0.0023939717 158:0.066262543 174:0.06767223 186:0.052387834 245:0.10674371 255:0.085926294 337:0.070579574 345:0.067748643 480:0.067902163 507:0.049362607 535:0.087545417 571:0.072861552 784:0.18130931 867:0.081151597 1513:0.15398003 2326:0.1388364 2789:0.14612359 7937:0.64416128 9409:0.64416128 #
-0.21419428514820646 6:0.029847723 12:0.033534992 59:0.12355899 69:0.151409 83:0.025779111 111:0.031110127 124:0.05751884 141:0.045441605 142:0.0025799831 201:0.059703253 218:0.028217942 254:0.048009787 261:0.20519006 284:0.030210132 296:0.044859037 302:0.12629937 318:0.060045935 341:0.041564591 347:0.081731923 373:0.0355125 482:0.078738682 495:0.16447067 500:0.051481202 506:0.027830305 511:0.064523406 532:0.11503768 613:0.092017457 778:0.047539067 804:0.046862096 829:0.036903832 916:0.060279265 990:0.066979922 1301:0.065350905 1375:0.062442295 1404:0.06736993 1579:0.062442295 1606:0.15747736 1651:0.068185069 1735:0.24535342 1891:0.21291256 1901:0.095172249 1974:0.089141481 2148:0.079680398 2221:0.18486641 2328:0.19355986 2333:0.15326922 2384:0.38711971 2403:0.07481198 2626:0.07785777 2726:0.082972132 2838:0.07481198 2874:0.095172249 2966:0.17298271 3150:0.17828296 3182:0.090153009 3266:0.33989275 3426:0.081784472 4020:0.080691934 4191:0.10319522 4275:0.10319522 4752:0.1101677 5685:0.11570209 5698:0.096779928 6559:0.29580766 #
-0.83333631802788244 6:0.041840289 29:0.06078231 73:0.090931199 97:0.052215409 142:0.0065098777 200:0.080840364 204:0.050235029 254:0.24227899 272:0.26339483 306:0.065664813 321:0.22221547 339:0.065087676 348:0.08313407 398:0.065087676 462:0.10282788 485:0.11581893 519:0.20010684 724:0.097916022 837:0.090806074 838:0.11021884 844:0.09169662 846:0.12118537 849:0.20915619 1193:0.10200039 1280:0.11021884 1334:0.12957649 1536:0.2751475 1653:0.12891091 1743:0.12418447 2014:0.14549144 2402:0.11541508 2403:0.50337994 2575:0.11653533 2857:0.14293765 2860:0.13026191 2915:0.13403438 3274:0.15165089 3799:0.16279836 3804:0.16940366 5045:0.18531862 #
-0.4380629961469435 6:0.0073357481 37:0.034708913 41:0.06755688 59:0.045551095 73:0.23914093 76:0.061030053 93:0.14544472 131:0.38960457 142:0.0019022663 144:0.043612558 169:0.053471942 199:0.10287015 299:0.060728017 306:0.057564195 387:0.051782891 438:0.16359541 582:0.061873462 709:0.063974015 873:0.08481928 1032:0.096878305 1120:0.59115744 1458:0.26290223 1510:0.11244104 1547:0.19697881 1878:0.27261043 2042:0.094222873 3687:0.15217525 4580:0.32491425 #
1 4:0.01820913 6:0.033677656 11:0.28375536 29:0.10702185 42:0.025186183 86:0.032702681 97:0.052535865 98:0.027307032 118:0.027565736 122:0.045311041 144:0.02502759 151:0.033245847 179:0.022947935 199:0.019677758 203:0.031913932 205:0.066620395 237:0.036176231 243:0.039693754 255:0.039181933 258:0.039920244 276:0.032702681 277:0.038123377 281:0.048593506 286:0.02358805 308:0.24883454 309:0.030980591 328:0.042709295 373:0.030051988 375:0.029842991 387:0.029716235 399:0.039693754 436:0.03718378 448:0.038123377 455:0.061474085 484:0.046528026 490:0.043565292 496:0.10590169 499:0.062711641 504:0.044718571 505:0.21196958 510:0.076116599 513:0.12600812 538:0.03688683 550:0.034297653 564:0.052161325 570:0.048838407 580:0.038090792 626:0.039731193 641:0.033310197 658:0.077868566 687:0.047368448 695:0.041555576 717:0.042660862 767:0.040268533 778:0.040229309 791:0.056047805 796:0.074009389 814:0.04673247 827:0.035957772 848:0.046528026 863:0.044489838 886:0.03625923 912:0.040035177 1009:0.037519488 1021:0.045070395 1027:0.043991171 1082:0.057700716 1086:0.15923013 1093:0.053439587 1159:0.042806767 1164:0.044660963 1198:0.10029486 1232:0.047662746 1245:0.041166916 1251:0.055302341 1253:0.051519457 1280:0.055447634 1289:0.057010919 1305:0.076575369 1316:0.058434337 1335:0.045250408 1340:0.056519326 1377:0.040151265 1395:0.044951927 1530:0.057179544 1614:0.053196408 1627:0.056202851 1664:0.049964078 1665:0.090743996 1873:0.055743821 1916:0.10283173 1980:0.10454372 2050:0.10840289 2078:0.058434337 2187:0.058819395 2261:0.063901126 2305:0.067428492 3197:0.076290801 3491:0.068737514 3519:0.071907438 3552:0.073892429 3740:0.65518993 4015:0.083441116 4493:0.0873276 4686:0.080538265 5003:0.075434804 5482:0.14638434 5953:0.080538265 6853:0.0873276 #
0.08570176194611008 6:0.0067024766 11:0.030118702 31:0.076638758 67:0.037913352 80:0.043640491 146:0.060185757 154:0.048451088 179:0.073073015 186:0.076068282 205:0.053034764 245:0.07749711 265:0.063317746 513:0.25077948 530:0.11019677 586:0.049269788 664:0.075767882 697:0.071853779 703:0.096328877 804:0.06313891 856:0.050302904 1081:0.074514799 1309:0.15824169 1393:0.076736018 1502:0.47985885 1710:0.093340091 1817:0.095277712 1918:0.19412918 2103:0.42942452 2122:0.44716477 2196:0.20757106 2369:0.087372489 2510:0.21342158 2709:0.10034264 3578:0.12010337 4346:0.12453843 4871:0.11354399 #
0.53069218909384497 6:0.012537188 15:0.028635692 16:0.32192934 29:0.01517754 31:0.047785047 42:0.025002841 96:0.077677526 138:0.035043593 174:0.030633543 180:0.032204233 186:0.023714676 199:0.019534513 267:0.044742305 284:0.025378827 346:0.034817517 355:0.025151759 367:0.035669196 414:0.030877894 439:0.04504171 506:0.02337959 513:0.031272713 586:0.030720215 684:0.039111711 731:0.048159864 733:0.094337553 781:0.090573989 795:0.099020869 890:0.043888319 998:0.32379606 1017:0.049244784 1294:0.047464706 1378:0.051248193 1426:0.049600367 1485:0.052114006 2024:0.040699843 2375:0.065053649 2737:0.072003961 2837:0.062847801 2973:0.424775 4033:0.072659373 4924:0.070795834 4955:0.59908539 5134:0.077650987 5870:0.089250594 5874:0.089250594 6334:0.084601291 7990:0.084601291 8110:0.18509865 8851:0.27764797 8910:0.092549324 #
0.74152566207142023 67:0.12753679 158:0.16182834 433:0.18232723 2206:0.29100072 3905:0.44689637 4225:0.44689637 5803:0.45643267 5863:0.48151612 #
0.49294582597059261 6:0.014191582 12:0.14350279 29:0.05154106 37:0.033573564 41:0.032673527 60:0.053857792 75:0.014380826 81:0.086406521 83:0.018385643 115:0.095540062 138:0.059501864 142:0.001840042 174:0.05201387 186:0.040266059 199:0.033168402 204:0.042597372 205:0.1122939 215:0.045204919 294:0.067809656 309:0.052220214 370:0.083914153 393:0.33316863 398:0.055191848 478:0.055645864 504:0.075376652 586:0.052161034 608:0.077427976 697:0.076070301 710:0.081772484 827:0.060609646 882:0.10657211 998:0.078540824 1113:0.086150825 1340:0.09526775 1608:0.076894529 1726:0.095816225 1951:0.088486373 2393:0.11105621 3027:0.36361688 4492:0.10987587 5125:0.13184659 5234:0.12225829 5480:0.13184659 6498:0.44159251 6756:0.14719751 9130:0.53559768 #
-1 6:0.024983713 11:0.037422832 31:0.031741511 41:0.038346957 60:0.06320966 63:0.054002251 75:0.033755824 96:0.051597778 142:0.0064786407 161:0.081271552 169:0.060703997 179:0.045397032 180:0.064175583 189:0.12463856 227:0.059195399 229:0.17444849 255:0.077512138 286:0.046663348 346:0.069383256 386:0.066325836 399:0.078524657 405:0.079200082 490:0.08618357 502:0.057483885 513:0.18695784 530:0.068460375 571:0.065726727 574:0.062355693 607:0.081692383 631:0.055891681 737:0.09813346 781:0.180493 852:0.24793926 853:0.088124849 1081:0.092585497 1225:0.074284732 1312:0.10828767 1315:0.25404513 1324:0.099388301 1411:0.10547572 1497:0.10111006 1591:0.098842055 1598:0.087133601 4624:0.53035754 4643:0.14225177 5454:0.4642213 5823:0.15275221 8660:0.17275688 #
-1 4:0.032297276 6:0.044800188 11:0.033552859 15:0.025581582 20:0.042119239 29:0.027117591 40:0.046653364 63:0.096835524 75:0.090795189 83:0.038693372 142:0.021298459 173:0.055809569 180:0.05753905 208:0.055940062 218:0.042353954 229:0.0782042 242:0.052319657 278:0.064460769 284:0.045344152 304:0.11307558 314:0.17875169 324:0.079112843 339:0.058076803 345:0.054794513 346:0.062208187 373:0.053302787 375:0.052932095 386:0.059466939 389:0.063634358 402:0.056911837 408:0.043967132 472:0.13605614 502:0.15461805 505:0.10741927 507:0.039924048 508:0.17379604 513:0.11174942 527:0.071215734 534:0.056911837 586:0.054887567 631:0.050111804 671:0.045599386 684:0.06988059 856:0.05603848 881:0.085074387 886:0.064312488 909:0.065740041 1045:0.038788006 1067:0.079419389 1080:0.15099248 1305:0.067910329 1314:0.087067775 1353:0.10731237 1395:0.0797306 1446:0.077930562 1610:0.10331103 1907:0.11228967 1917:0.18582362 1936:0.10053407 2138:0.11623085 2236:0.1065243 2422:0.23775607 2694:0.10942633 2807:0.20283711 2830:0.11334053 2968:0.11388689 3700:0.24223046 4188:0.12453771 6079:0.5412637 6297:0.13531592 7724:0.14526264 9593:0.15946333 #
-0.04519895001464249 6:0.013858396 11:0.12455004 63:0.11981959 75:0.11234557 77:0.10450039 85:0.084928192 86:0.10765753 118:0.18149334 120:0.23092018 142:0.043124206 186:0.078641407 192:0.1119185 199:0.1943381 237:0.238185 242:0.097106718 276:0.10765753 296:0.1249692 304:0.4197427 339:0.10779213 349:0.13738412 436:0.36722806 586:0.20374565 657:0.14393707 761:0.1409203 847:0.14778866 856:0.10400895 1045:0.071991593 1067:0.14740457 1271:0.17674141 1710:0.38598984 1746:0.16187875 #
-0.4342918112298369 6:0.027419752 15:0.046971273 27:0.079839736 29:0.049791593 32:0.20554744 48:0.083872072 83:0.035523154 114:0.096267998 142:0.017775852 176:0.14212859 221:0.13050933 286:0.076819889 336:0.25068989 355:0.082513116 373:0.097871177 420:0.13941005 506:0.15339865 671:0.083726689 685:0.14489135 799:0.13831051 1379:0.1447074 1652:0.16423041 1844:0.35653877 2206:0.17694934 2385:0.21576752 3287:0.46450707 4565:0.49691695 #
-1 6:0.020616228 11:0.030880826 12:0.18530461 15:0.023544353 28:0.05074681 29:0.049916081 30:0.12392089 48:0.084081762 53:0.052924298 68:0.042187478 75:0.083564579 80:0.044744767 83:0.017805984 120:0.057254139 142:0.021384353 148:0.060407784 199:0.032122675 200:0.066388302 204:0.041254368 205:0.10875351 215:0.043779705 218:0.038981032 227:0.048847254 229:0.10796443 262:0.064315543 303:0.18420126 326:0.16026799 341:0.057418462 387:0.048509844 405:0.065354854 408:0.080931477 437:0.061812583 438:0.0766275 478:0.053891473 483:0.066723228 485:0.047556825 493:0.06134953 505:0.049432389 513:0.051425043 521:0.27106097 565:0.073094703 585:0.085150011 586:0.050516509 631:0.046121072 710:0.079194374 724:0.080411293 814:0.15257551 882:0.051606059 912:0.065354854 950:0.074882373 1081:0.076400325 1177:0.09279535 1237:0.084272839 1309:0.081122912 1378:0.084272839 1379:0.072534591 1548:0.075626075 1620:0.083109565 1726:0.1855907 1819:0.095390297 2040:0.093621276 2200:0.09913978 3170:0.10641173 3347:0.12604909 3807:0.28511336 4705:0.11007267 4785:0.10586514 5048:0.12453983 8113:0.57022673 8245:0.14676422 8246:0.14676422 #
